{"layers":[{"0":{},"1":{},"2":{},"3":{},"4":{},"5":{},"6":{},"7":{},"8":{},"9":{},"10":{},"11":{},"12":{}},{"0":{"bias":-0.14608225593739782,"weights":{"0":0.010846228243296023,"1":-0.14945815671046644,"2":-0.17228196974914758,"3":0.17075584261828852,"4":-0.19490909035923512,"5":-0.19605842433002163,"6":-0.042545614771117145,"7":0.018735673228998637,"8":-0.10808913063640262,"9":0.05882232308852565,"10":0.08149644161969796,"11":-0.0615875969881271,"12":0.1553004944223725}},"1":{"bias":-0.16423793257353322,"weights":{"0":0.12355732163961451,"1":0.07786928283782471,"2":-0.07333514382230734,"3":-0.1482670259351185,"4":0.13721256042380803,"5":-0.13149505459730126,"6":-0.17417802601922708,"7":-0.1751946816705758,"8":-0.15750964008757354,"9":0.15273196766637845,"10":-0.18789635890980477,"11":0.014182646102710049,"12":-0.11379591448074301}},"2":{"bias":-0.03862276871200612,"weights":{"0":0.02533847426799353,"1":0.0538824240239086,"2":0.1819032050505373,"3":0.037003358644473336,"4":0.1533706390810946,"5":0.06417506329401375,"6":-0.1153089181828232,"7":-0.0705998337031862,"8":0.034168475396093585,"9":-0.011387049457823584,"10":-0.16598932746615344,"11":0.10329479897189785,"12":0.13694565533326056}},"3":{"bias":0.03217366247909386,"weights":{"0":-0.09833415957238174,"1":0.13623882449330627,"2":0.012731679038264943,"3":0.05808730541437568,"4":-0.06561298744845986,"5":0.10631461182120044,"6":0.0034493984264784426,"7":-0.051840050848466074,"8":-0.16079497282444322,"9":-0.020618446731133402,"10":-0.007098147196075015,"11":-0.03028123639152739,"12":0.13333612513546061}},"4":{"bias":-0.11342070112934048,"weights":{"0":0.07540953957651345,"1":-0.04163034159471316,"2":-0.10144340848097491,"3":0.12117484502908116,"4":0.052916833211761306,"5":-0.19003204243013117,"6":0.14185793087765478,"7":0.14201236775320053,"8":-0.09442029262354301,"9":-0.13657691257881413,"10":0.06745320701011565,"11":0.004792182070859655,"12":-0.03963962048293049}},"5":{"bias":-0.11987740247610033,"weights":{"0":0.18355350889357114,"1":-0.09568937025569071,"2":-0.18163127941526,"3":0.1407705303179946,"4":0.02115157324304687,"5":0.10905379235174405,"6":-0.1760543029534018,"7":0.12319414631228155,"8":-0.024341288617478092,"9":0.017008804932591732,"10":0.1609831133210213,"11":0.07478043131818252,"12":-0.1358013597021913}},"6":{"bias":0.11771562823420365,"weights":{"0":-0.05545695793086828,"1":-0.19173019083023904,"2":0.1938743513971631,"3":-0.14710558720256148,"4":-0.19139785562687148,"5":0.08504323269546309,"6":-0.11305083411562039,"7":-0.14588787157282707,"8":0.03083254616627935,"9":-0.1849604334515852,"10":-0.11359204787790271,"11":-0.022222923741279304,"12":-0.11798975281251813}},"7":{"bias":0.08099816809340925,"weights":{"0":-0.1770382912757187,"1":-0.13471798766183937,"2":0.11497206897007105,"3":0.04180328015069722,"4":-0.10974352845929115,"5":-0.016704283224475026,"6":0.11158403682119397,"7":-0.14171615575887958,"8":-0.04443518868894815,"9":-0.006202622552925173,"10":-0.12177923089255507,"11":-0.026132441241184592,"12":-0.13498861145142282}},"8":{"bias":-0.08447211536696611,"weights":{"0":0.14072910652889534,"1":-0.18820603223877855,"2":-0.10827704262368402,"3":-0.07611156336623259,"4":0.015113040404236357,"5":0.18127739260962278,"6":0.07638404961085583,"7":-0.07777674591086763,"8":-0.022719570223936048,"9":-0.005275986023467408,"10":0.07090030872187011,"11":-0.024494467696964027,"12":0.10694863163554692}},"9":{"bias":0.1868420063848069,"weights":{"0":-0.03498188071713947,"1":-0.024503842200911317,"2":0.026253369293821185,"3":-0.00006986791899433952,"4":-0.11069816410064516,"5":0.10271029646847202,"6":0.13342851184061855,"7":-0.13874521020340064,"8":-0.030492039127226627,"9":-0.20191915239954777,"10":0.10987828595703326,"11":0.15412550337009667,"12":-0.1213260977579819}},"10":{"bias":0.14512304821721536,"weights":{"0":-0.19250953637234633,"1":-0.010480186097222899,"2":-0.14975681222732604,"3":0.15104087994757395,"4":0.12126114702653822,"5":0.18392091124047957,"6":-0.062479311297135125,"7":-0.16348542823578718,"8":-0.05283072054204394,"9":0.01185237300887535,"10":0.17721782047865187,"11":0.043180182461804,"12":0.01426514107817675}},"11":{"bias":0.051138913693653996,"weights":{"0":-0.0708517865159616,"1":0.0483622548484183,"2":0.15405936443778678,"3":0.14524855021398891,"4":0.1802148600775997,"5":-0.10230062450556494,"6":0.01315161817466405,"7":0.14330281437656,"8":-0.09408341032832024,"9":-0.036124702637648845,"10":0.12784809967054236,"11":0.06050823099144994,"12":0.05083968647043977}},"12":{"bias":-0.029732095639430696,"weights":{"0":0.16885096824341886,"1":0.18829383065067423,"2":0.1410363847643601,"3":0.09736847939974051,"4":0.10991465993770691,"5":0.12030141573273437,"6":0.1219881260385093,"7":0.05235498219832458,"8":0.006949926972173858,"9":0.07225023161099124,"10":0.00005120054542516145,"11":0.19302719775397859,"12":-0.0897291399608447}},"13":{"bias":-0.16134979502614472,"weights":{"0":-0.02109481664293907,"1":0.20192796821277292,"2":0.013625691968727162,"3":0.19799509197751844,"4":0.09657806407844195,"5":-0.04565037988611155,"6":-0.11282106332377691,"7":-0.1684009933716849,"8":-0.11622753124959707,"9":0.15295612728954835,"10":0.14622890452393922,"11":-0.18857249893153735,"12":-0.14255375733414605}},"14":{"bias":0.10963512012182021,"weights":{"0":-0.13334894385262325,"1":-0.1559306010240459,"2":-0.11599698959936293,"3":-0.18405195870543672,"4":0.13128115623489803,"5":0.17425978331344263,"6":-0.09021160000525981,"7":-0.060195929966398,"8":0.1377971057508099,"9":-0.09992034240484099,"10":-0.13439229598129002,"11":-0.04984616170357402,"12":-0.1683006403143846}},"15":{"bias":-0.13736362049118364,"weights":{"0":-0.046688154570926836,"1":0.09403992296153035,"2":-0.03722877386349107,"3":-0.07104414215756263,"4":0.0012193164184064722,"5":-0.18246196140013077,"6":-0.09016604796004746,"7":-0.15277994033541423,"8":0.039498684060100694,"9":-0.12397302572995052,"10":0.17088716500124845,"11":0.06258182227861443,"12":0.10623676740366027}},"16":{"bias":0.03935410623996471,"weights":{"0":0.04912612495490354,"1":-0.03958250254873556,"2":0.1339038681267458,"3":0.09056470454331689,"4":-0.07273704816812851,"5":0.12826990841312852,"6":0.02102008421056303,"7":0.1994389378725923,"8":-0.06873800060647314,"9":-0.021889914749173827,"10":0.10004458271176231,"11":-0.14045216797338053,"12":0.1852475039049912}},"17":{"bias":-0.04414011758486691,"weights":{"0":-0.08925398546272963,"1":0.03640583289637868,"2":0.12304142908088461,"3":-0.09341660032674771,"4":0.10765433432275055,"5":0.12358140335891474,"6":-0.07889364648618608,"7":0.08031158644210838,"8":0.1059635288808545,"9":-0.17369685221660996,"10":-0.09397579677400629,"11":0.18777740878204688,"12":0.14314630219549432}},"18":{"bias":-0.11084806552862136,"weights":{"0":0.18882005760226261,"1":0.0164490384838726,"2":-0.08263221924103988,"3":-0.20091791358416214,"4":0.12335030533103453,"5":-0.1652904259111389,"6":-0.10447328520765731,"7":-0.05057455588450957,"8":0.1500038096336488,"9":-0.0710358725435988,"10":-0.16908012543146794,"11":-0.13362063999690776,"12":-0.17446746583411646}},"19":{"bias":0.17071514580618344,"weights":{"0":0.09464805041155909,"1":0.12870808092839697,"2":0.17733522560403667,"3":0.10790037751949032,"4":0.014493610161870696,"5":0.0746681130883551,"6":0.03698904426687619,"7":0.028325008454977714,"8":0.06925269130308415,"9":-0.07383609429582205,"10":-0.06512217719776331,"11":-0.11379930343620207,"12":-0.05475107872095221}},"20":{"bias":0.04503630026480989,"weights":{"0":0.11604718031640415,"1":0.12863463712077156,"2":-0.055871750295136496,"3":-0.09914709053861624,"4":-0.09548291834256337,"5":0.08520338807361375,"6":-0.18325637034013725,"7":0.09407042135610812,"8":0.07456850632490487,"9":-0.11934473309097549,"10":-0.02392408416859611,"11":0.02371142556334802,"12":-0.10982662642779087}},"21":{"bias":0.10332111394239735,"weights":{"0":0.1184079669498517,"1":0.011741682706875362,"2":-0.016459758395222044,"3":-0.022428958459956197,"4":-0.0872327558811807,"5":-0.05714426236475935,"6":-0.16639030292725476,"7":0.007373033641029802,"8":0.07168541153358739,"9":0.153294378678108,"10":-0.03716402000425178,"11":-0.05110206069073877,"12":0.18505722203467148}},"22":{"bias":0.1335831675156242,"weights":{"0":-0.18240811041010777,"1":-0.17450285948954586,"2":0.062196377509315295,"3":-0.017547812455610975,"4":0.0076708478398505656,"5":-0.1039256100961543,"6":0.054020578930385296,"7":0.15433532365336938,"8":0.19602244031896562,"9":0.16185329325148182,"10":-0.02719361411614828,"11":-0.045218389585455605,"12":-0.14011175998259726}},"23":{"bias":-0.1768966158733889,"weights":{"0":0.13867945201167198,"1":-0.18239703035802193,"2":-0.06931262409567356,"3":0.067395757408615,"4":-0.14414042776734556,"5":-0.16159204671056673,"6":-0.12591387865355347,"7":-0.02997893180226983,"8":0.0019400687839562173,"9":-0.09296003724158648,"10":0.19262088673629735,"11":-0.06322884562814568,"12":-0.15670797520645938}},"24":{"bias":-0.0840909284663332,"weights":{"0":-0.07607275723702325,"1":0.06068433787769521,"2":-0.20390258690991506,"3":0.11662719152404921,"4":0.005819055603753566,"5":-0.12049465873575711,"6":-0.01957887370635867,"7":0.17311428684294278,"8":-0.17452709503019603,"9":-0.0218507165944433,"10":-0.022200547719047524,"11":-0.012588284214958646,"12":-0.033286574903552156}},"25":{"bias":-0.1695882279844715,"weights":{"0":-0.05479010935563612,"1":-0.13569160736368413,"2":-0.10491767256372146,"3":0.06809611746904055,"4":-0.03986088095780656,"5":0.07198688971984883,"6":0.13423530550699403,"7":0.09809439913045369,"8":-0.0902518845395688,"9":0.00933433328095537,"10":-0.06188145247487612,"11":-0.14560854159159278,"12":-0.1452404247409074}},"26":{"bias":-0.11364736924024446,"weights":{"0":0.1328000576445242,"1":0.18084091572475156,"2":0.1400737465632696,"3":0.20421226700820896,"4":-0.15004443980266283,"5":-0.0822781614991748,"6":-0.1848989390912236,"7":0.18748449976470902,"8":-0.11178277024161329,"9":0.18871040626726562,"10":0.08608404083851695,"11":-0.13105937790946187,"12":0.15931211647278493}},"27":{"bias":0.1091791023308479,"weights":{"0":0.0173862694619891,"1":-0.04575153999551394,"2":0.004111810313924052,"3":0.21319483823233196,"4":0.01904862377211584,"5":-0.022917405926058516,"6":-0.07082447915337252,"7":0.20668161440700694,"8":-0.09355948242641907,"9":0.14144605232968177,"10":0.040580362015786325,"11":-0.11667911728346748,"12":-0.10039794284098144}},"28":{"bias":-0.07930539069848248,"weights":{"0":-0.012392315578009645,"1":0.09171411287562665,"2":-0.16698711601757243,"3":-0.16098955777505208,"4":0.008540297443344246,"5":-0.16317107167246914,"6":0.15923324388630192,"7":0.04745401111076746,"8":0.08423704006701002,"9":-0.04555164137247075,"10":0.03761781608964263,"11":-0.16014427608499754,"12":-0.06701067342372943}},"29":{"bias":0.044889504616899126,"weights":{"0":0.11897560743290025,"1":-0.09305566733358762,"2":-0.08969979562511314,"3":0.09334136070157352,"4":0.1039120954890836,"5":0.09492233126040048,"6":0.021072471293512616,"7":0.14241506946004584,"8":0.18135599419648396,"9":0.11604098386517954,"10":0.08404394840102707,"11":-0.15827207653775582,"12":-0.1946485724452628}},"30":{"bias":-0.17310711973456147,"weights":{"0":-0.08811646448161638,"1":-0.06773421325594361,"2":0.0866435168097222,"3":0.11660458740819482,"4":0.008426502370080103,"5":0.17621689363510723,"6":0.012707410472735114,"7":0.002004340290467905,"8":0.18931554490725852,"9":0.15808181118398665,"10":0.13349167350589725,"11":0.08817842861469005,"12":-0.03634925886019223}},"31":{"bias":0.1051256757498352,"weights":{"0":-0.07643035003653302,"1":-0.16375033855057705,"2":-0.05581733904173004,"3":-0.17194333888326857,"4":0.05418076970943684,"5":-0.006064680076869853,"6":0.19082755237504712,"7":0.19994763477013497,"8":0.15099200512775862,"9":0.0808506988637785,"10":0.05547066525526854,"11":-0.13748298571888012,"12":0.19020172455835277}},"32":{"bias":-0.18754024222252966,"weights":{"0":0.16056808333499895,"1":-0.040018813441227485,"2":0.03639593856378087,"3":-0.10608898594537844,"4":-0.15711800916971908,"5":0.09509222243737785,"6":-0.11104356607692065,"7":0.13090959726027634,"8":-0.1954273881236653,"9":-0.1344365270329999,"10":-0.19935046405794557,"11":-0.0730955386559361,"12":0.06211617192877459}},"33":{"bias":-0.10854709174895351,"weights":{"0":0.10823212401353542,"1":0.12428741197349762,"2":0.011058345437163752,"3":0.08835102224014416,"4":-0.1027586512398023,"5":-0.06848769950536268,"6":0.045470814194920266,"7":-0.1827174433082875,"8":-0.13322509261754248,"9":0.0702544192714057,"10":-0.15845269007562102,"11":-0.1449582016608894,"12":-0.1345932003632188}},"34":{"bias":0.07394183343780372,"weights":{"0":-0.03597660662038966,"1":-0.18952399322654961,"2":0.15831558034837684,"3":-0.1755638239069126,"4":-0.026669206208987096,"5":0.0067424565821812875,"6":-0.19587909086197247,"7":0.11295514783280554,"8":0.10551319982851932,"9":-0.10822660993007717,"10":-0.11143907368483988,"11":0.0018595357944671891,"12":0.19621762393091843}},"35":{"bias":0.002837763640485288,"weights":{"0":-0.0876695702300595,"1":-0.11493336309719825,"2":0.1371498463660627,"3":0.17897773797625988,"4":0.02991416108427024,"5":0.15536299897285002,"6":-0.18028975237056272,"7":0.16783497650185272,"8":0.02637341976404864,"9":-0.19173286329306322,"10":0.18011395068971692,"11":0.10297886289719219,"12":-0.1228979998061898}},"36":{"bias":-0.18963847486217966,"weights":{"0":-0.09611553380759841,"1":0.16521628123070212,"2":-0.06174610758243709,"3":0.08524110680733141,"4":0.17567107062993792,"5":0.05102599460028194,"6":0.21008625282745697,"7":-0.1679096364794781,"8":-0.10106568936625983,"9":-0.17214931236531777,"10":0.15743857870750014,"11":-0.15605596169431452,"12":0.1757088125246079}},"37":{"bias":0.02342668739593914,"weights":{"0":0.14538589014424666,"1":-0.13881733809616587,"2":0.09607030430152262,"3":0.11887389886086033,"4":-0.08240067846422086,"5":-0.10174167466885056,"6":-0.10600655566841369,"7":0.030037744519719318,"8":0.19246942785629018,"9":-0.06311061183182794,"10":0.023555963293669123,"11":-0.15102906288096843,"12":0.19677288617063532}},"38":{"bias":0.048963998902897106,"weights":{"0":0.04515199088711447,"1":-0.013713894980439437,"2":0.06264245147726029,"3":0.03335024628583555,"4":0.17002586369022898,"5":-0.07329304213531972,"6":0.011764869945615203,"7":-0.0697606214638869,"8":-0.1965652433704548,"9":-0.038149386067376535,"10":0.13506370109645147,"11":-0.17551291357428644,"12":-0.04889028824176396}},"39":{"bias":0.035850218272997454,"weights":{"0":0.16188129364982823,"1":-0.03759763570839094,"2":-0.04672680451573713,"3":-0.024511741919378275,"4":-0.09646872149664412,"5":-0.11576835209633336,"6":0.09268846428374201,"7":-0.1290412171362755,"8":0.1661120614844023,"9":-0.02809918756963862,"10":-0.041336993508329804,"11":-0.15738375816559214,"12":-0.01717066059785102}},"40":{"bias":0.11174315366615686,"weights":{"0":-0.020114411950685418,"1":-0.1167166442519611,"2":-0.01557739886463168,"3":-0.02422926431492215,"4":0.19626199330401606,"5":0.17199808869737976,"6":0.05323947894270036,"7":-0.11546896582484957,"8":0.18145234294881085,"9":0.07488329595869817,"10":0.1713194806488332,"11":-0.12745863992283607,"12":0.11789686317084655}},"41":{"bias":0.11306325296731308,"weights":{"0":-0.04561860378040375,"1":0.16247741824130804,"2":-0.1495093505376025,"3":0.18998386500461023,"4":0.11462885648146277,"5":0.08964409331443325,"6":0.021552094329567353,"7":0.133593750442119,"8":0.13352424891017284,"9":-0.08554750426131623,"10":0.1723367720633692,"11":0.06267319040964187,"12":-0.1149082405487272}},"42":{"bias":-0.134674920766893,"weights":{"0":0.19254265749133048,"1":-0.007552852238466366,"2":-0.1607904004921748,"3":0.054597887062530444,"4":0.0499126869234296,"5":0.1767517038842724,"6":0.08735859442813865,"7":0.15314188494181483,"8":0.032430339804515984,"9":0.044987789576294956,"10":-0.06768192238389868,"11":0.06957645636440347,"12":-0.19812215299201785}},"43":{"bias":-0.1655967374172806,"weights":{"0":-0.17757409119242845,"1":-0.10882543529272966,"2":-0.16908950226206573,"3":-0.046875540440842495,"4":0.165792808291847,"5":-0.1273181311444749,"6":-0.04217199281807225,"7":-0.04216184149118057,"8":-0.17016239770206495,"9":0.09083992588790553,"10":0.06008411562254551,"11":-0.18692053607768844,"12":-0.11547341603634723}},"44":{"bias":0.0022620029108788645,"weights":{"0":0.13801474747119444,"1":0.06982855473647008,"2":0.1232613176335128,"3":-0.00969560836753645,"4":0.05834371742062759,"5":0.05769761260858572,"6":0.04777600062852328,"7":0.11937513998939256,"8":-0.02565659577363974,"9":-0.06406747973169008,"10":0.04115414085561355,"11":0.03232510405404212,"12":0.1183565441971619}},"45":{"bias":-0.07921810064364969,"weights":{"0":0.05666134038150873,"1":0.0654999705533111,"2":0.23091126795630706,"3":0.07114854559935205,"4":-0.18671656867856604,"5":0.15100761142811936,"6":0.0362592655951802,"7":0.0801930881311731,"8":-0.15247214745146584,"9":-0.18552526944468894,"10":0.14941959986536532,"11":0.19776017382618497,"12":0.13488117186127319}},"46":{"bias":0.18110412238939355,"weights":{"0":0.10493996961655505,"1":0.03259591879751273,"2":0.19162882368979953,"3":0.18607906225802112,"4":-0.197007920504591,"5":-0.2031506227049886,"6":0.1588670838338482,"7":0.12323175382850464,"8":-0.17040513344262448,"9":-0.1364011251616768,"10":-0.16838278995954245,"11":0.04070506350408711,"12":0.03321838489362297}},"47":{"bias":0.01165077581606516,"weights":{"0":-0.1960906492617545,"1":0.1076910398304347,"2":-0.15723283321498444,"3":-0.04283784583258258,"4":0.05497511496512612,"5":0.18436564865313176,"6":-0.17420588896521993,"7":0.15342903458424534,"8":0.1416572504595366,"9":0.1566253971194848,"10":0.12119922881689761,"11":-0.03010513200085885,"12":-0.08256422827024829}},"48":{"bias":0.19003161846882752,"weights":{"0":-0.18075885975096967,"1":0.06336155088245311,"2":-0.14014831290578125,"3":0.19696895478732063,"4":-0.002854683727707496,"5":0.17653528704840693,"6":0.017499894353138083,"7":-0.07920574935294097,"8":-0.08016394072476879,"9":0.1871638549682758,"10":0.0002482553872422948,"11":0.16452990563411682,"12":0.08225165912381595}},"49":{"bias":0.11379082469875074,"weights":{"0":-0.07645362612793181,"1":-0.07453973508466685,"2":0.07557906643307932,"3":0.12692296085233065,"4":0.05148299803399237,"5":-0.15063262296290755,"6":-0.10800819196376188,"7":-0.04297485773675484,"8":-0.13194913793970825,"9":0.11271996889290084,"10":-0.10475294360801041,"11":-0.03952316427989179,"12":0.1070460275404959}},"50":{"bias":-0.043476723710979485,"weights":{"0":0.05990732414834598,"1":0.039729090106283164,"2":-0.1932612547460351,"3":0.09779927818397167,"4":-0.07348126653518033,"5":0.05378863032297039,"6":-0.15592295483222118,"7":-0.0749015602557501,"8":-0.011375799836875224,"9":0.11074808355514502,"10":0.078628171562467,"11":0.02197907409150964,"12":-0.07266787116509099}},"51":{"bias":-0.09754412881266987,"weights":{"0":-0.1638700501376351,"1":0.007820024546274684,"2":0.1172999340344164,"3":0.15748452927358667,"4":-0.03423494883541302,"5":0.1941652855006556,"6":0.028853500025823913,"7":0.0195149394894959,"8":-0.07855619238441747,"9":0.06952015795432813,"10":-0.033744745755696436,"11":0.18808364278974604,"12":0.010431919083003689}},"52":{"bias":0.16054000783432315,"weights":{"0":-0.11283990650886377,"1":0.11054891573067603,"2":-0.028829696480847992,"3":-0.06533249976187117,"4":0.15657511124969045,"5":0.19250893143750883,"6":-0.034871061908188505,"7":-0.19577083683098706,"8":0.0629536153748441,"9":-0.06464754263502721,"10":-0.13263138586185058,"11":0.14289687389611475,"12":0.002724019227836712}},"53":{"bias":0.15521233835965842,"weights":{"0":-0.18053156293888684,"1":-0.12215825253292227,"2":-0.019358581849768727,"3":0.13261155707431965,"4":0.17921078557443054,"5":0.1516272995424006,"6":0.19888717475682788,"7":-0.14720501347099557,"8":0.07761322474673535,"9":0.13425852485880285,"10":-0.14249506787263327,"11":-0.11381098649391258,"12":-0.04600941987148748}},"54":{"bias":-0.1622600704605185,"weights":{"0":0.1761789760609778,"1":-0.10074783604048142,"2":0.13869677920498036,"3":-0.19192980572573018,"4":0.13215321540580988,"5":0.1800012219860397,"6":0.010623304514912543,"7":-0.12144506245984026,"8":-0.05929046750022943,"9":0.1752589351627725,"10":-0.026205945877792805,"11":0.025273308673627756,"12":-0.05472033138431263}},"55":{"bias":-0.1632583270675033,"weights":{"0":0.03656720343715886,"1":0.0812978510751492,"2":-0.19112790514665934,"3":-0.05560826599405804,"4":0.04183712907165439,"5":0.18975901017341934,"6":-0.19378195681436847,"7":-0.10852433170277644,"8":-0.013098535926886716,"9":0.008421376344734484,"10":-0.036597120228372665,"11":0.15371462435373573,"12":0.046949930099405714}},"56":{"bias":-0.17771613238673137,"weights":{"0":0.09071820524240844,"1":-0.11486030376093523,"2":-0.14792297804525462,"3":-0.012240593854731974,"4":-0.010799335487045009,"5":-0.1342300757743518,"6":-0.09170360475881231,"7":-0.06000779549894354,"8":0.13503973644641082,"9":0.16046239749404015,"10":-0.13078417067099615,"11":0.19847434355327043,"12":0.11596815239189398}},"57":{"bias":0.09441976220758666,"weights":{"0":0.16777965826846705,"1":0.1513526522069628,"2":-0.07144374534258051,"3":0.09128533759626739,"4":0.08249891941250677,"5":-0.012796916106642388,"6":0.14132363664087833,"7":0.17656163054884821,"8":-0.11153482558669568,"9":-0.026019411637316452,"10":-0.18362172243764452,"11":-0.10667894025029977,"12":-0.09987568629703131}},"58":{"bias":-0.14525428780456284,"weights":{"0":-0.11445453247879135,"1":0.015833493584478543,"2":0.14311485284339998,"3":-0.09141893782628908,"4":0.10778145888077009,"5":0.011671776222172277,"6":-0.1375140894440772,"7":-0.15575249144134012,"8":0.16770916664779276,"9":0.010980724384203088,"10":0.15567557856198894,"11":0.1892497321156301,"12":0.04270558693846308}},"59":{"bias":-0.014297784146451175,"weights":{"0":-0.07210091552659982,"1":-0.16411494976051316,"2":-0.005641147158131219,"3":-0.030797771369057064,"4":0.006614983095707456,"5":-0.07195916100201116,"6":0.0226574806714407,"7":0.14781138139184574,"8":-0.1725244960537579,"9":0.10738785883270191,"10":0.03133625017026428,"11":0.16578111302930507,"12":0.10291675840912393}},"60":{"bias":0.10779698318680261,"weights":{"0":0.11878498489352753,"1":0.0548165920991652,"2":-0.17176583886521413,"3":0.002869327566764988,"4":0.07800488935156917,"5":0.03011821574654714,"6":0.08823084875166512,"7":0.07818053458592553,"8":-0.1440665900192379,"9":-0.08412168946072136,"10":-0.035277301860351405,"11":0.07514676844955223,"12":0.13763006909314307}},"61":{"bias":-0.035403834767919404,"weights":{"0":-0.11876086321435196,"1":-0.060968404090433324,"2":0.15144493880969104,"3":0.17377601412457,"4":-0.017324045514508373,"5":0.12159119909522946,"6":0.12189478456754266,"7":0.08023653151819146,"8":-0.15521693152733543,"9":-0.1713906882725375,"10":0.06687549963017327,"11":-0.1788050907842926,"12":-0.07685671289897553}},"62":{"bias":0.11563708208875317,"weights":{"0":0.11467497370138956,"1":-0.0801197395109165,"2":-0.13418369635783117,"3":0.18957443810172006,"4":-0.07637960352242804,"5":-0.13335558289282567,"6":0.10420964791492193,"7":-0.07471624102313867,"8":0.11917197108023722,"9":-0.06445446825568057,"10":0.17053816268103672,"11":-0.060431927365461255,"12":0.08169871837383023}},"63":{"bias":0.16694792513665282,"weights":{"0":0.17945166847143035,"1":-0.03615607743474128,"2":0.09171354823211703,"3":-0.13609091949583768,"4":-0.12729824412023155,"5":0.12318748566351814,"6":-0.04468476419238027,"7":0.15812300272954813,"8":0.061401975768474074,"9":0.1319862038141363,"10":-0.011073607622725018,"11":0.1397493217626867,"12":0.08310139941558829}},"64":{"bias":0.11379667338902522,"weights":{"0":-0.10479431584115988,"1":-0.12142025009484275,"2":0.03354868734787749,"3":0.19833299970504395,"4":-0.16706577913452442,"5":0.1978967717210358,"6":-0.08471068606223167,"7":-0.18932595233186827,"8":0.06911221515370766,"9":0.09160796441469612,"10":-0.16012511666154783,"11":-0.11954529739832666,"12":-0.12872301468324163}},"65":{"bias":0.12158721182567142,"weights":{"0":0.0634357444788529,"1":0.14554601338552633,"2":0.08481846707957871,"3":0.1076399832575669,"4":-0.18599862454553165,"5":-0.03271220068533324,"6":0.15053172910480614,"7":0.07272349902546744,"8":-0.18799724992927944,"9":-0.05352553223653833,"10":-0.04515810016047977,"11":-0.16211784202665505,"12":-0.057651645467963905}},"66":{"bias":0.03499271805277274,"weights":{"0":0.027983453806535576,"1":0.10149057780353359,"2":0.09759461578630967,"3":0.0771655982578884,"4":-0.12952910888712588,"5":-0.005988710758917974,"6":0.09125310896108413,"7":0.11454787931939434,"8":-0.14400639657430622,"9":-0.097655910915982,"10":-0.17984145968313592,"11":0.012068229945874118,"12":0.15011958124261854}},"67":{"bias":-0.11235876283914184,"weights":{"0":-0.03136697176871906,"1":-0.004692181662751229,"2":-0.19188807248779235,"3":0.12835641132912537,"4":-0.16726118407011928,"5":-0.13085320515317772,"6":-0.1404599532024172,"7":0.11397032101735848,"8":-0.19846145304005477,"9":0.03937857664072079,"10":-0.0929080467084626,"11":0.14717619038270618,"12":0.16391946418371212}},"68":{"bias":-0.04904122639428271,"weights":{"0":-0.19610662131501852,"1":-0.17980569979793734,"2":0.05848596330624636,"3":-0.12280550326843581,"4":0.1225204251847779,"5":-0.18039165032036888,"6":-0.02464594501426655,"7":-0.09123693461943003,"8":0.02508107370690342,"9":0.12865914423729743,"10":-0.018071854999681405,"11":0.04191849828481723,"12":0.01263963144057689}},"69":{"bias":-0.08415439373808699,"weights":{"0":-0.08198343913063653,"1":-0.0002312076303723533,"2":-0.025490698639469515,"3":0.11897649354385624,"4":0.18793968807637718,"5":-0.16354087503836962,"6":0.003737921210719187,"7":0.16708798363401076,"8":-0.0686593054352294,"9":0.141697924367679,"10":0.04784463771718262,"11":0.09107736215632962,"12":-0.1580582691230127}},"70":{"bias":0.035180385686803615,"weights":{"0":-0.054405156017099124,"1":0.012856788562632906,"2":-0.07250805884597798,"3":0.10346473895960961,"4":-0.17780755867622305,"5":0.1672733976147375,"6":0.0036926725201790116,"7":0.2097797995255781,"8":0.05954211450037244,"9":-0.0767894367199837,"10":0.055824537425989446,"11":0.16088813792501347,"12":0.16783858772451654}},"71":{"bias":-0.1733529968024943,"weights":{"0":-0.028655833903583405,"1":-0.02798344712050494,"2":-0.13475157117196246,"3":-0.15034845528944946,"4":-0.05519319209577809,"5":-0.1734528658456351,"6":-0.1365811102266683,"7":0.02117857465505937,"8":0.15217503440061333,"9":0.12530187583793886,"10":-0.040253711800961295,"11":-0.0022907199663835054,"12":0.14472856793442168}},"72":{"bias":0.1521082418559911,"weights":{"0":-0.10542467948989655,"1":-0.09029917312009744,"2":0.13832813877023115,"3":0.03319558859766794,"4":-0.047146748918548614,"5":-0.08757501904370697,"6":0.08546778038697593,"7":0.033211608351312136,"8":-0.04971437348106017,"9":-0.030512618771794696,"10":0.03675673632497906,"11":-0.1632106880709886,"12":-0.08821448728316748}},"73":{"bias":0.008348775762410922,"weights":{"0":-0.13759339077859628,"1":-0.08624119152535083,"2":-0.007039415687364028,"3":-0.015297413943448511,"4":0.19727959121884134,"5":0.01869820412365862,"6":0.1603338919101146,"7":-0.05264415751237933,"8":-0.08420303983043138,"9":0.19870361578498136,"10":-0.08788381908533324,"11":0.012133683264694987,"12":-0.1537536239195759}},"74":{"bias":0.014932682349183858,"weights":{"0":0.1581618399924146,"1":-0.12980737065737094,"2":0.20777660067268103,"3":-0.1346600295740277,"4":-0.030505755675049418,"5":-0.14404164417830756,"6":-0.1828765917464185,"7":-0.013019513396286864,"8":0.15202768445534948,"9":-0.0024553819671940605,"10":0.047386536085418006,"11":0.10597776158544638,"12":-0.0021046826131484063}},"75":{"bias":-0.08311168310627273,"weights":{"0":0.1375865864980432,"1":-0.10144618194941002,"2":0.11686388799517752,"3":-0.10035186224463126,"4":-0.11070061778545194,"5":0.13563214907546506,"6":0.021796992232383634,"7":-0.006147102708945184,"8":-0.05263061091621803,"9":-0.0479258934437211,"10":0.19290236829824373,"11":0.0017335486794090712,"12":-0.13324589631851833}},"76":{"bias":0.006387038819884571,"weights":{"0":-0.16611693660261442,"1":-0.19730576114731793,"2":-0.1049566753495651,"3":-0.0034514125146881897,"4":-0.09158081853664927,"5":0.18419291719556524,"6":-0.032645140386808116,"7":0.13153367006435387,"8":-0.022924945808115636,"9":-0.1866126527550201,"10":-0.12381046695834681,"11":-0.11670470826875459,"12":0.06818224621843308}},"77":{"bias":0.1223017324651319,"weights":{"0":-0.0040103630761122375,"1":-0.06994311060743044,"2":0.06974804562167551,"3":-0.07765730718095938,"4":-0.0990093444609925,"5":-0.18548162027225948,"6":0.042604003685673526,"7":-0.13366471937175395,"8":-0.1323975384305633,"9":-0.11583232341124736,"10":-0.12458997847590751,"11":0.15034565169623265,"12":0.1539686406405425}},"78":{"bias":-0.01135855143026823,"weights":{"0":-0.10520013237820516,"1":0.057141043677603906,"2":-0.012101372982330525,"3":-0.03422286156417135,"4":-0.06456488840371007,"5":-0.1862680254662113,"6":-0.09738088774654637,"7":-0.00696921384405743,"8":-0.05493044071882507,"9":0.06962971913800818,"10":-0.1356081352379286,"11":0.08556999685813631,"12":-0.10456012829265385}},"79":{"bias":-0.13444474720134597,"weights":{"0":-0.009708308031357636,"1":0.07620326321960649,"2":0.06281191999298621,"3":0.006156242511938912,"4":-0.037021581427500866,"5":-0.1465878436987609,"6":-0.06509406552454329,"7":0.19062353757680317,"8":0.04698984417459365,"9":-0.15627880260346216,"10":-0.18738792841107607,"11":0.18712464244001728,"12":-0.11042766835112623}},"80":{"bias":0.17571947295629925,"weights":{"0":0.12898513081802715,"1":-0.037511316018173105,"2":0.18705646000045936,"3":-0.008494383001141274,"4":-0.014414577173892622,"5":-0.1509102479107672,"6":-0.17416212488841434,"7":0.14611990950768905,"8":0.003771141579982675,"9":0.18178768246068303,"10":0.15933010110528686,"11":0.16620901880276123,"12":0.13360598167073964}},"81":{"bias":0.1328993682059792,"weights":{"0":-0.16251688853869017,"1":0.034213787379379045,"2":-0.11071231241062192,"3":0.12440893843653864,"4":0.11678870069912667,"5":0.07167433443017866,"6":-0.11734506212671067,"7":-0.07733444704007103,"8":-0.13967517494308504,"9":-0.14340758265138062,"10":-0.012113342861502636,"11":0.0688791865745293,"12":0.16359391990965316}},"82":{"bias":-0.17820987505165284,"weights":{"0":0.05656673653068893,"1":0.08128684757980952,"2":0.06310919358207635,"3":-0.1856702498235527,"4":0.032088121694575374,"5":-0.09390521796796583,"6":-0.1189614743118645,"7":0.159294078572699,"8":-0.15825934298115463,"9":-0.1697138344783855,"10":0.11397581780132802,"11":0.11305639169755978,"12":0.09186071205045084}},"83":{"bias":0.08800472085185501,"weights":{"0":-0.1563049276688437,"1":-0.07941159049913166,"2":-0.1474703276341801,"3":0.014354811584839318,"4":-0.1632271927354989,"5":-0.17842373542230167,"6":-0.13753667794708643,"7":0.11309040655683306,"8":-0.0655850831382792,"9":0.05897417814877668,"10":0.054925821099498534,"11":-0.044777845497433466,"12":-0.006235869071232276}},"84":{"bias":0.06791666663991386,"weights":{"0":-0.012331706525539929,"1":-0.1001214138062603,"2":-0.03862769573642639,"3":-0.2004472962133088,"4":0.04746697929594368,"5":-0.15757315413227194,"6":0.007171848586025869,"7":-0.1801760550089865,"8":0.07276710426366025,"9":0.007076380667947299,"10":0.17748448111959925,"11":0.04260674464288784,"12":-0.006574013604900975}},"85":{"bias":0.14367177844834764,"weights":{"0":-0.006158520454882911,"1":-0.16628064439214832,"2":0.002683188019732661,"3":0.08963431744271552,"4":-0.021201258542247494,"5":0.018029032974811576,"6":-0.07305452885120085,"7":0.18108324732615724,"8":-0.1484341905229085,"9":-0.18839660315509454,"10":-0.09860508552441678,"11":-0.1115302983965097,"12":0.020762266008288004}},"86":{"bias":-0.1956330840183815,"weights":{"0":-0.1621252859242122,"1":0.11882289900086943,"2":-0.007743033175922195,"3":-0.17941964787084588,"4":0.1383081761437092,"5":-0.19214188673832588,"6":0.15325167528078754,"7":0.07864583706137893,"8":0.012380055598716412,"9":0.16160847647857526,"10":-0.06733888286932717,"11":0.0015330730686916778,"12":0.12617116352454677}},"87":{"bias":-0.1498222341069758,"weights":{"0":0.0709553211324628,"1":0.0039240679794573805,"2":-0.007648011417367148,"3":-0.025884293562524575,"4":-0.11237872026472245,"5":-0.06790340775898446,"6":-0.1329450191520556,"7":0.12479518550211396,"8":0.2129583910913194,"9":-0.053294721809052314,"10":-0.032941919142340376,"11":-0.07799661510373321,"12":-0.1432900161665583}},"88":{"bias":0.003375300211516615,"weights":{"0":-0.09283218037489954,"1":0.0702830577256471,"2":-0.15212867612690165,"3":0.11005440366361939,"4":0.08846653879986363,"5":0.11169094585057183,"6":0.0032158159753105054,"7":0.05962598696452797,"8":0.18316700642233077,"9":-0.12822085175721867,"10":-0.1850933964279865,"11":-0.011061474782928299,"12":-0.1600162115560216}},"89":{"bias":0.03552365056167397,"weights":{"0":-0.1178314039885246,"1":0.11584623878963309,"2":0.09224391647210435,"3":0.02473305510910012,"4":0.0829102412087565,"5":-0.0699401839393907,"6":0.06326847350145612,"7":-0.06845750750663392,"8":-0.0640188068032041,"9":0.015203421939450816,"10":-0.010982685420440457,"11":0.008552866306585544,"12":0.17467684600382}},"90":{"bias":-0.025477659751372814,"weights":{"0":-0.16581445640731107,"1":0.14205077562922686,"2":0.15986138663844923,"3":0.0889876630353822,"4":-0.02515516578247648,"5":0.12335349003582209,"6":0.0770942307302751,"7":-0.1338561245356994,"8":-0.09566168040823098,"9":-0.19666574461710928,"10":-0.008715309728800103,"11":-0.08946296980935387,"12":0.17732139299383304}},"91":{"bias":0.16464793614663048,"weights":{"0":-0.0497753746151036,"1":0.2064285197796834,"2":-0.057069603194752204,"3":-0.06459092979187174,"4":-0.12685381621043906,"5":-0.09729043033254707,"6":-0.08264872952287426,"7":0.15164237745912335,"8":-0.09390291570766462,"9":-0.016527930935453433,"10":0.18696184778179717,"11":-0.08416510629893693,"12":0.012252216536210774}},"92":{"bias":-0.02611534761093742,"weights":{"0":0.13041381514455003,"1":-0.12419574607548302,"2":-0.04244418049807403,"3":0.1764933454298145,"4":0.022992290618412018,"5":-0.0001931865820949411,"6":-0.015366269703243538,"7":0.19939347879836486,"8":0.05115548514710199,"9":0.1824071748376133,"10":0.15174314763297853,"11":0.043123950857084974,"12":-0.11273013601832074}},"93":{"bias":-0.14666449820543387,"weights":{"0":0.18501815693954882,"1":-0.045451585855319485,"2":0.18821420905440997,"3":-0.10931434753551518,"4":-0.07186409521912038,"5":0.00707809436591667,"6":0.08422649318014346,"7":0.007760707940712897,"8":-0.10002301093422965,"9":0.1172246275567842,"10":0.06810369954333237,"11":-0.09247090849470176,"12":0.16296092934598239}},"94":{"bias":-0.18201352844668878,"weights":{"0":0.010238551586771432,"1":-0.13589024731041516,"2":0.0781328777048934,"3":-0.13460122887052567,"4":-0.18987908611217627,"5":-0.13961153253426017,"6":-0.002874924158384685,"7":-0.02544998755920341,"8":0.05471047133037758,"9":0.026170014800367323,"10":-0.1296133525132261,"11":0.030989991314626916,"12":-0.12357504724108498}},"95":{"bias":0.013926605642523172,"weights":{"0":-0.17988919220900995,"1":0.10827479221551567,"2":-0.06429949571379925,"3":-0.06194939925581446,"4":0.17899379014148206,"5":0.18951954291037015,"6":-0.09742049776842959,"7":-0.14197365661264377,"8":0.04052693381845782,"9":0.1752647764819102,"10":0.06916212115024685,"11":0.0991632357056174,"12":-0.14494781936957118}},"96":{"bias":0.035666327220629956,"weights":{"0":0.057856254476668464,"1":-0.0939029311760157,"2":0.14322175196412906,"3":-0.08448838818221283,"4":0.02405628602849764,"5":-0.1448874671476228,"6":-0.11686138126270279,"7":0.17927486733946865,"8":0.1860734138692404,"9":-0.10736482280791527,"10":0.026825452440223364,"11":0.16558901388169683,"12":0.11878028523890807}},"97":{"bias":-0.1640954448867177,"weights":{"0":-0.11588508519982674,"1":-0.047857962188357014,"2":0.019632649435050616,"3":-0.06676062296354611,"4":-0.07413918856033011,"5":-0.0492184897745652,"6":0.06633279920899063,"7":-0.01303181397252917,"8":0.15275900933718034,"9":0.18645220890978517,"10":-0.023306980303292434,"11":0.10519041474205867,"12":0.13010703421607736}},"98":{"bias":0.10331213049336106,"weights":{"0":-0.030918248419204753,"1":-0.14181182838510897,"2":-0.12608083322840835,"3":-0.028017732264635258,"4":-0.1330360862417376,"5":0.06594182531261976,"6":-0.10135319055371864,"7":0.07479040813775545,"8":0.005981529443351758,"9":0.1771295205486846,"10":-0.060606454179800685,"11":0.04122732468820893,"12":-0.16302514830456227}},"99":{"bias":0.005908936163052745,"weights":{"0":-0.1445310054028662,"1":0.1603060297181918,"2":0.12101521314491112,"3":-0.14333136596736473,"4":-0.12434929668803461,"5":0.027947662330270268,"6":-0.18344235540809486,"7":0.09814959661279458,"8":0.15476369201616258,"9":0.026352800583940073,"10":0.07641723316501543,"11":-0.19445451470837746,"12":0.14974275503188372}},"100":{"bias":0.12891719886260647,"weights":{"0":0.0955625219748622,"1":0.11677418976732405,"2":0.026685237169780763,"3":-0.09541658192077303,"4":-0.16303392724814494,"5":-0.11742456301355304,"6":-0.06421143032524623,"7":0.001849917027408358,"8":-0.1463437247086361,"9":0.08286196996342778,"10":0.18413861024253536,"11":-0.12220017844712212,"12":0.16607691783010065}},"101":{"bias":0.12473584624329934,"weights":{"0":-0.05642579853956908,"1":-0.0807119960522184,"2":-0.12867107627397625,"3":0.134097601142559,"4":-0.002031402577199865,"5":0.05305358532551077,"6":0.1645335107987816,"7":-0.053389290475691686,"8":0.1476251683600038,"9":0.18596046333207406,"10":0.05792491018362082,"11":0.010731168175878577,"12":-0.13924187404224728}},"102":{"bias":-0.1143720836941369,"weights":{"0":-0.0847034856794659,"1":0.06169170583125758,"2":-0.08272014711930212,"3":-0.16038318757978667,"4":0.08797636973467522,"5":-0.1913438733288961,"6":0.10558994321317941,"7":0.14290398798973966,"8":0.09643101119694308,"9":0.16440570871687657,"10":0.16277910682523505,"11":0.09954316536234244,"12":-0.15443241018708737}},"103":{"bias":0.1502017605258409,"weights":{"0":-0.059965149875078005,"1":-0.0253184583658984,"2":0.1817992629925044,"3":-0.010401169546982338,"4":0.08698387926865953,"5":-0.1845996102424442,"6":0.11108189161107222,"7":0.06468876736408527,"8":0.02942970954861923,"9":-0.20086843704284557,"10":0.15494948026665561,"11":0.0728664999304589,"12":0.14933170022113806}},"104":{"bias":0.034830192419122365,"weights":{"0":0.03381328446651294,"1":-0.008363488149813764,"2":0.1352708660069881,"3":0.13438874853146096,"4":0.13695081025319092,"5":-0.18580337321145884,"6":0.013119811378663249,"7":-0.00864068759593689,"8":0.18094000665148277,"9":-0.19636393451128537,"10":0.18307907449698754,"11":-0.058184248589081014,"12":0.1410881855585372}},"105":{"bias":0.021117777126433403,"weights":{"0":-0.18287894973464733,"1":0.021180201634562034,"2":0.004981214466589172,"3":0.004176477463095296,"4":-0.009106189408261009,"5":0.015079356242579129,"6":0.04328414954208776,"7":0.12402236069551263,"8":-0.09077329912091239,"9":-0.056247671982778004,"10":-0.1734242117930759,"11":0.04934074668730209,"12":-0.1779633222888508}},"106":{"bias":0.02804275007224443,"weights":{"0":0.0369485454030319,"1":0.038165330559328484,"2":0.020151430217739574,"3":0.12595905563172338,"4":0.02840416647395778,"5":-0.20403491123760298,"6":-0.07445074485183106,"7":-0.006925551268149973,"8":-0.09287342933219307,"9":-0.0013042462896212504,"10":-0.13187939058210024,"11":-0.050248211014753394,"12":-0.09874115552222026}},"107":{"bias":-0.13936972980991302,"weights":{"0":0.04838307995973139,"1":0.08222331766796206,"2":-0.12011189486906475,"3":-0.040893969687979884,"4":-0.19030687876206667,"5":0.12757285389759138,"6":0.04677330865274417,"7":-0.17979657022885906,"8":0.03675909446965047,"9":-0.12087250895660086,"10":-0.02770849560095065,"11":-0.12997654960322128,"12":-0.04169745089211226}},"108":{"bias":0.02203519245217321,"weights":{"0":-0.16974294698553147,"1":-0.1964367992932235,"2":0.09629572940789256,"3":-0.09793665954243409,"4":-0.01965220912486385,"5":0.08756430400720737,"6":0.15999153708911878,"7":0.13248172754013343,"8":-0.048343155135493115,"9":0.07597862648398405,"10":0.1287383196237272,"11":0.12029193185526053,"12":0.15803184048743796}},"109":{"bias":-0.16870112623271066,"weights":{"0":-0.17339343832256646,"1":0.06451052357850773,"2":-0.1340763590598932,"3":-0.11696270417690335,"4":-0.14368571920294781,"5":-0.16500597194536246,"6":-0.1597235817581473,"7":0.1992012136871735,"8":0.11495842630419334,"9":0.1908510844780466,"10":-0.19608290053482086,"11":0.0581778037963553,"12":0.06854011454932325}},"110":{"bias":-0.13805149490697552,"weights":{"0":-0.12996713644407984,"1":-0.03407995846182068,"2":-0.09634084112721286,"3":-0.11090086609604483,"4":0.01829658267604585,"5":0.011967441002868527,"6":-0.06483683702002328,"7":0.056071413968204226,"8":0.12479962451862053,"9":0.08702559541102599,"10":0.05218042017104049,"11":0.1653637151844247,"12":0.016705988136648583}},"111":{"bias":0.1085176128586722,"weights":{"0":-0.05665613064919382,"1":0.019732832180212278,"2":0.029863666858926236,"3":-0.003912669701737655,"4":0.19783339330792155,"5":-0.06459703344125271,"6":0.09565058107039272,"7":-0.0019261216193670343,"8":0.016051006472136906,"9":0.11809900796579134,"10":0.1048378646971545,"11":0.17058373834636723,"12":0.1558993398870449}},"112":{"bias":-0.0980945057153169,"weights":{"0":-0.07539111744070383,"1":0.0013127257148746125,"2":-0.1009603646200816,"3":0.05528020344387471,"4":-0.08125991816542649,"5":0.013919120705740029,"6":-0.08891788244347676,"7":0.12963920665536918,"8":-0.04817400361265088,"9":-0.19193784706775496,"10":0.06311036809049551,"11":-0.07487968096523114,"12":0.17959998305871666}},"113":{"bias":0.10368905148777863,"weights":{"0":0.030731551095835533,"1":0.07535634331630273,"2":0.04201284432233172,"3":-0.08915853427727016,"4":0.03265920421915127,"5":0.19584258513915243,"6":-0.15176396722585697,"7":-0.02484303087780731,"8":0.03522525610172788,"9":-0.15068765177511495,"10":0.0849396071430536,"11":0.1465271375919808,"12":-0.15142850243193487}},"114":{"bias":-0.13173154193433576,"weights":{"0":0.011484614382385416,"1":-0.14986164543141192,"2":0.01608343002769975,"3":-0.034191477277520026,"4":-0.05598973622664398,"5":0.014673016429508275,"6":0.1261046517264559,"7":-0.18273080764718622,"8":0.021984949948680374,"9":-0.13051938409494485,"10":-0.027059215701244314,"11":-0.12235438729392875,"12":0.08677744726402688}},"115":{"bias":-0.006101139121620225,"weights":{"0":-0.17271963940505405,"1":-0.13881192674322188,"2":0.14268613541784655,"3":0.17484300198963773,"4":-0.026592512358878155,"5":0.13442129871505423,"6":-0.0073546534904203615,"7":0.1764864131225839,"8":0.152034100108835,"9":-0.11632042016215588,"10":0.05197640931585365,"11":-0.08145530409389218,"12":0.19546525341219761}},"116":{"bias":0.0013371040760588506,"weights":{"0":0.02811283594449665,"1":-0.14167461514794802,"2":-0.11140355996201677,"3":0.009124378040405357,"4":0.00599600058481736,"5":-0.18733984580007224,"6":0.18650447380715954,"7":0.09896474093521858,"8":0.12670848759279538,"9":-0.0610146836973474,"10":-0.07401629320241859,"11":0.022672380464499278,"12":-0.05274727387189231}},"117":{"bias":-0.09705557474308232,"weights":{"0":-0.046713128242899894,"1":0.11148599906190197,"2":0.061784686058923684,"3":-0.11655587256396534,"4":-0.10189513582001938,"5":0.021938363109436115,"6":0.15898065058176158,"7":-0.08722758740434657,"8":-0.1814980289633005,"9":0.15160825009020332,"10":0.19590298638087303,"11":0.08882333148444159,"12":0.1767346280510494}},"118":{"bias":0.01741870281644824,"weights":{"0":0.10208543257562099,"1":0.16005909746994745,"2":0.18238187970416833,"3":-0.04810462328293365,"4":0.16706274435538968,"5":0.16418052715392958,"6":-0.0553114368823663,"7":0.09315028296756132,"8":0.18449846581387092,"9":-0.17307606559814634,"10":-0.1840264577194242,"11":-0.016487295524178613,"12":-0.10705461597373378}},"119":{"bias":-0.04815012956637061,"weights":{"0":-0.038184833666886464,"1":0.20568528578884593,"2":0.08777609341863615,"3":-0.04702851321596659,"4":0.08195899087020103,"5":0.029384134463744365,"6":0.08144301800835738,"7":-0.08353765510086562,"8":-0.07890665777032205,"9":-0.11541064535367858,"10":-0.05801057342771513,"11":0.08475031583090749,"12":-0.008164486733971863}},"120":{"bias":-0.018255628045253547,"weights":{"0":0.0433519496456371,"1":-0.16826684293718047,"2":0.061723612001968506,"3":-0.1545033651995172,"4":-0.09438892291669221,"5":0.18402116591936257,"6":-0.0060984985573636205,"7":-0.08958434321761333,"8":0.1441520967976339,"9":0.14752013282911272,"10":-0.07829373351855896,"11":0.12276247732156276,"12":-0.06209942060178435}},"121":{"bias":-0.15821158845231276,"weights":{"0":0.09648290791549982,"1":0.08318836230229987,"2":-0.1646730074478593,"3":0.0705245044442649,"4":0.1576195967850975,"5":0.10765714078230332,"6":-0.18034016908058928,"7":-0.022743088527689748,"8":0.09561830830456527,"9":-0.19725916660609144,"10":0.1044290624496491,"11":0.1303254793778911,"12":0.10036517382661642}},"122":{"bias":0.08223265036109265,"weights":{"0":0.1162624961607013,"1":-0.08815508087146064,"2":0.14765383446591887,"3":-0.15566513345905073,"4":-0.0028096356930409636,"5":-0.08051150102723673,"6":-0.1843538221911835,"7":-0.04833038269783596,"8":0.08276418863002563,"9":0.10769327169895138,"10":-0.10274204769690488,"11":-0.10384360345780813,"12":0.06740481879345077}},"123":{"bias":0.00586594713936005,"weights":{"0":-0.10230881886443433,"1":-0.19571014846794263,"2":-0.030868038095607408,"3":-0.14864248531071358,"4":0.0879666118621231,"5":0.15805018078104283,"6":-0.04604305422840317,"7":0.1960579280325828,"8":0.011040345254850195,"9":-0.1286181206526459,"10":0.0834618837050423,"11":-0.06650734595122851,"12":-0.125148686323979}},"124":{"bias":0.15254268023583725,"weights":{"0":-0.12836083586600183,"1":0.10309441577115018,"2":-0.19867984176141595,"3":0.16049627573096759,"4":0.14107674190252523,"5":-0.011695101285876877,"6":0.14133223862083538,"7":0.01904389464286182,"8":-0.08443552355513556,"9":0.16637103931341043,"10":0.0558858635163352,"11":-0.07016499380096608,"12":-0.11249486523981836}},"125":{"bias":-0.16512547279696332,"weights":{"0":-0.0853642990873899,"1":0.0665458309013285,"2":-0.15919814440685673,"3":0.024889198138058066,"4":0.03280673473983237,"5":0.11113787326357555,"6":0.16022822721506413,"7":0.0034003940972643643,"8":0.17426719218982015,"9":0.109092952959797,"10":-0.12293617400271768,"11":0.10748044552593917,"12":-0.05238847238935184}},"126":{"bias":-0.12830824106298175,"weights":{"0":0.10288896635315752,"1":-0.15609783874887118,"2":0.13870984098840441,"3":-0.1180924520159319,"4":0.037154008599434636,"5":-0.16915697585878342,"6":-0.12544141552446025,"7":-0.1577438596279255,"8":0.13432049452910788,"9":0.011600658171277247,"10":-0.01518862127175078,"11":0.1602679437606558,"12":0.07683810340588151}},"127":{"bias":-0.15953683945442362,"weights":{"0":-0.18674069042364258,"1":0.030178147109120243,"2":0.026182257594189646,"3":-0.13684770931492313,"4":0.17263603710626235,"5":-0.0725330595189014,"6":-0.060151715809580134,"7":0.033576794017730435,"8":0.16853323886141972,"9":-0.01630914854856139,"10":0.1162161035843874,"11":0.029386399122763814,"12":0.16919177721302842}},"128":{"bias":-0.016424363942851124,"weights":{"0":0.057405249536234874,"1":-0.12257958847328092,"2":0.05710769379193568,"3":-0.12549648284131515,"4":-0.16786143833913472,"5":-0.21009295002192668,"6":0.08850669276522695,"7":-0.0721009216335204,"8":0.166725739391015,"9":-0.045184517429168854,"10":-0.049702308853273425,"11":-0.011699600450987087,"12":0.16981427133453153}},"129":{"bias":0.0420266587025505,"weights":{"0":-0.09908363759880053,"1":0.07777072229915671,"2":-0.07583240054079257,"3":-0.03903570660017453,"4":-0.0824959020170519,"5":0.15365555314597437,"6":-0.06715719087193836,"7":0.1573027712247415,"8":-0.12647328260992724,"9":0.08814511205277163,"10":-0.12876034538135867,"11":-0.08983973607311593,"12":0.02787227589288804}},"130":{"bias":-0.05364583892230676,"weights":{"0":0.14464164358267179,"1":-0.10383802458243943,"2":0.1656839705511028,"3":-0.1282626823965826,"4":-0.013998182152865772,"5":0.02757368789593466,"6":-0.10437794028854581,"7":-0.12479603398063337,"8":0.029885486637333716,"9":-0.05709415276589277,"10":-0.03967775896215502,"11":0.17443109422060596,"12":-0.05962440875658335}},"131":{"bias":-0.043996974638798876,"weights":{"0":0.03813290024951723,"1":-0.05767224038298469,"2":-0.16378252310309419,"3":0.19361048316005458,"4":-0.10151711644095317,"5":-0.1951516758761791,"6":-0.20100584040006883,"7":0.14948940472636285,"8":0.12343382977332579,"9":-0.07912041922507017,"10":-0.18752790185488327,"11":0.007131984721287678,"12":0.05971573430715371}},"132":{"bias":0.04617101558175791,"weights":{"0":-0.053656967323132895,"1":-0.040796945206670564,"2":-0.06500463669884643,"3":0.04736301804205866,"4":-0.15265668191189485,"5":0.09916784247805786,"6":0.1698406075963634,"7":-0.06119842712428936,"8":-0.029650984720740084,"9":0.012800142613916961,"10":0.06420550035325989,"11":-0.17584231986787222,"12":-0.06260650324376899}},"133":{"bias":0.19480170107466477,"weights":{"0":0.10582220619743357,"1":-0.06666129646710862,"2":-0.15561703142004757,"3":-0.03401018292505797,"4":-0.13120621233355728,"5":-0.0867322112354411,"6":0.19707020160542407,"7":0.06716712554251614,"8":0.18799305827046345,"9":0.14199831859976397,"10":-0.18525285141563005,"11":0.09239436225761977,"12":-0.16846127064543698}},"134":{"bias":0.11507481355119924,"weights":{"0":-0.12705607703247254,"1":0.015366757258696651,"2":-0.12963286856042736,"3":0.05457069469972076,"4":0.12600818415869328,"5":0.1707690216945185,"6":-0.07772858724971769,"7":-0.10042309250477202,"8":-0.2020567387839076,"9":0.01573529701021175,"10":0.05698271346355323,"11":0.12842575010825208,"12":-0.08056623617840497}},"135":{"bias":0.16072218293104149,"weights":{"0":0.014438326017145064,"1":0.07400733683695496,"2":-0.003080794578028984,"3":-0.00443727589579427,"4":-0.08809614681718998,"5":-0.01985742890800709,"6":-0.1745138925359568,"7":0.0628266033680766,"8":0.03500051857635162,"9":0.030048440783732182,"10":0.0891546709375334,"11":0.05117101413478177,"12":-0.049704238925686775}},"136":{"bias":0.17857988508863348,"weights":{"0":0.13556820933157482,"1":-0.0043057654521716305,"2":-0.046120679720006684,"3":0.14306445481923485,"4":0.16902126032010897,"5":-0.041992546799539135,"6":0.19314318074773623,"7":0.019278966453569992,"8":-0.09957686719188469,"9":0.1078126165618611,"10":0.018603979024562445,"11":-0.055622259509414365,"12":0.0006403092168247978}},"137":{"bias":0.10598853780922801,"weights":{"0":0.1650812645575313,"1":0.15926394154542353,"2":-0.0350341622849862,"3":-0.03882398919584883,"4":-0.11924164326584427,"5":-0.18052646597998276,"6":0.039074774163795255,"7":-0.09620572794796346,"8":-0.09111564413623961,"9":-0.02112101983511928,"10":0.1084719556316133,"11":0.14703417877804822,"12":0.15803677019290388}},"138":{"bias":-0.059143162382496305,"weights":{"0":0.17013680103667467,"1":0.1938332966903568,"2":-0.051740217056932596,"3":0.10224880634077695,"4":-0.1335064608825774,"5":0.012469801894137105,"6":-0.06919306161063654,"7":-0.044391372788313024,"8":-0.05796731382359316,"9":-0.055152435964200525,"10":-0.15141535586236665,"11":0.04372009607002127,"12":0.12919396427887844}},"139":{"bias":0.12867793159500165,"weights":{"0":0.04719647909263795,"1":0.14156921853642748,"2":0.16229281525599223,"3":-0.08892142919725664,"4":0.05258319831357471,"5":0.08149421474292512,"6":0.006188412686578055,"7":0.016079935819586652,"8":-0.02527323006751156,"9":0.045402627582631756,"10":-0.013590113301121393,"11":-0.18634375210716433,"12":0.149868899018309}},"140":{"bias":0.16787020933556573,"weights":{"0":0.09055195747612169,"1":-0.17523069901960955,"2":-0.021162422659591916,"3":-0.18520539486744303,"4":0.16405825575983116,"5":0.09723451523609984,"6":-0.19582293591015867,"7":-0.03449137130114726,"8":-0.040280331854250236,"9":0.12164991543096942,"10":-0.03875462703521246,"11":0.19880460871019978,"12":0.18182186519986282}},"141":{"bias":-0.12258352243818496,"weights":{"0":0.15880044375252084,"1":0.11636655474689782,"2":-0.18727401995394283,"3":0.12348063521644323,"4":-0.07779904733759782,"5":0.10167277665442208,"6":-0.10566924081525399,"7":0.17804355188551205,"8":0.09783116519802439,"9":0.04914568378126814,"10":0.023987471770575752,"11":-0.01563349439135777,"12":-0.01899858753153655}},"142":{"bias":0.010699285081030784,"weights":{"0":-0.08579567133803638,"1":0.0827791517719377,"2":-0.09897596098186805,"3":-0.00660452046441849,"4":0.06805479598559759,"5":0.15705013374653873,"6":-0.007126657351791566,"7":-0.03836162012161615,"8":-0.07306492187793541,"9":0.06535529582008764,"10":0.14841808146575508,"11":-0.15282277247010567,"12":0.09700954890680374}},"143":{"bias":0.08821577802913981,"weights":{"0":-0.1130757968464564,"1":-0.1839829260626326,"2":0.19566127066560376,"3":-0.009912015148333253,"4":0.009323575179125626,"5":0.08229900417410416,"6":-0.09045114359548306,"7":0.0451893527184329,"8":-0.17714729759064207,"9":-0.08973163263742356,"10":0.19172936455195502,"11":0.0321174614738105,"12":0.05862746838904186}},"144":{"bias":0.17162067259115454,"weights":{"0":-0.067521439099774,"1":0.07291784029230255,"2":0.01585636191898673,"3":-0.1720313544997226,"4":-0.09400516577384598,"5":-0.026357241295905595,"6":0.07594593431009737,"7":-0.17976087197751078,"8":0.1149379470660153,"9":-0.1119432335414046,"10":0.048612133560819656,"11":0.1734512079788155,"12":0.16437895633541927}},"145":{"bias":0.10540557506248535,"weights":{"0":0.10443735176653537,"1":0.12387888572508098,"2":-0.09085050943841125,"3":0.055332484525721044,"4":0.07333853462400453,"5":0.19259982514681853,"6":0.08615437961749234,"7":0.12083188169429673,"8":-0.13598059229274226,"9":0.018696719395914867,"10":0.0776415020975148,"11":-0.1956586395141446,"12":0.04601091747748863}},"146":{"bias":0.18648845391660548,"weights":{"0":-0.05973521059121072,"1":-0.18818739741327942,"2":0.07390121938927835,"3":-0.15676503398199865,"4":0.030492200748292623,"5":0.14321680402746603,"6":0.08387131643388636,"7":0.04257806447647331,"8":0.047385748090452436,"9":-0.08320513028789546,"10":0.17270003869893213,"11":0.08486951302316795,"12":0.03197404997495335}},"147":{"bias":0.19777374182255247,"weights":{"0":-0.1604292961683549,"1":-0.11342898299979608,"2":-0.04542742807178395,"3":-0.09689790005756357,"4":0.14352741470365982,"5":0.07053158988997554,"6":-0.16701773083909105,"7":-0.19179994932833905,"8":0.09441156495195416,"9":0.08490652239649285,"10":-0.09360232274244992,"11":-0.015315144357541038,"12":-0.0441086452207985}},"148":{"bias":0.0754058678923928,"weights":{"0":-0.1865135542957588,"1":0.04993520537074694,"2":-0.14262598862037226,"3":-0.1384601508766513,"4":0.19372844700022926,"5":0.09689273438017011,"6":-0.10006928956778315,"7":-0.15099455264842682,"8":-0.16917884654583684,"9":-0.06633530332158462,"10":-0.11091304520428763,"11":-0.07050630523010233,"12":0.01145740171119198}},"149":{"bias":0.19527490960623126,"weights":{"0":-0.05952029150145134,"1":-0.13992001719391894,"2":0.07907685843002088,"3":-0.016917603484492325,"4":0.04898532080487118,"5":0.0032733536680098155,"6":0.19654648869600747,"7":0.1832910775140217,"8":-0.03608718436980861,"9":0.01575790836449213,"10":0.07385203320730416,"11":0.1060429148181752,"12":-0.18331426828810335}},"150":{"bias":0.15508989878036777,"weights":{"0":-0.14114089015367146,"1":-0.18075072842600093,"2":0.13841320973478727,"3":-0.01604713429707138,"4":-0.17033214446499204,"5":-0.10029820275355035,"6":-0.11885373863774765,"7":0.10407851150887554,"8":-0.03446658762566507,"9":-0.1917578678190508,"10":0.1326395468791566,"11":-0.0910288654278902,"12":-0.11633200188068114}},"151":{"bias":0.011844678714412079,"weights":{"0":0.14379671405308878,"1":-0.0017653540306567835,"2":-0.05599182382207041,"3":-0.05400812415044996,"4":-0.14911975007166195,"5":-0.11493087718150857,"6":-0.024660607055452928,"7":0.06687760756982064,"8":0.16836185319245142,"9":-0.0030864503823282074,"10":0.1933202495108182,"11":0.08171053266553424,"12":-0.0017630960127500996}},"152":{"bias":-0.009006948594832465,"weights":{"0":0.0393091925681055,"1":0.05454797367127633,"2":0.03864406034793554,"3":0.06265806100023903,"4":-0.11974470816734144,"5":-0.04181013616680683,"6":0.06702704119484947,"7":0.034636648014775985,"8":0.20232957550126215,"9":0.02097601358691337,"10":-0.04588490477572203,"11":0.15879443912868463,"12":-0.14752880005462657}},"153":{"bias":-0.17085429236429445,"weights":{"0":0.14050381696499903,"1":-0.190260975496764,"2":-0.16677121080090146,"3":0.046692765617782205,"4":-0.1186560737530103,"5":0.1711105646902238,"6":-0.1702762097697609,"7":0.031885800140107425,"8":-0.17349218581245107,"9":0.03767655132356407,"10":-0.18911182282927075,"11":-0.09425511843858206,"12":-0.07137383605898752}},"154":{"bias":-0.08676568705369658,"weights":{"0":0.15312968901596075,"1":-0.006978500454639031,"2":-0.04256614285736599,"3":0.10690190546514847,"4":-0.05672393794137336,"5":-0.19834489315171533,"6":-0.1917910584060126,"7":-0.16017327265286121,"8":0.09151251257578802,"9":-0.13349589124521283,"10":-0.13074089230871996,"11":0.19053199898663448,"12":-0.008617675973207171}},"155":{"bias":0.19001007118188568,"weights":{"0":-0.0670048029155576,"1":-0.03854575713925256,"2":0.12543778661482574,"3":-0.02665596952593643,"4":-0.023359320987155388,"5":0.13047117987364787,"6":0.09987385272246786,"7":-0.11901824223321528,"8":-0.02710557963616391,"9":-0.15595856685722886,"10":-0.08257633482977779,"11":0.07166012069722372,"12":-0.10527877946062357}},"156":{"bias":0.10908784983294963,"weights":{"0":0.021568526364076548,"1":0.21434896082472432,"2":0.16299781629054436,"3":-0.04956933860041435,"4":0.1600856733549225,"5":-0.10904577964434672,"6":0.07597142790574204,"7":-0.04948523960190206,"8":-0.14014587947456325,"9":0.04796658345076151,"10":-0.04180720352184252,"11":-0.011403044452367056,"12":-0.06641455799557253}},"157":{"bias":0.01615216263280571,"weights":{"0":0.1544380672994758,"1":-0.02280947535601133,"2":-0.17748678547857757,"3":-0.19080873862914793,"4":-0.0616459612889512,"5":0.021726871624095333,"6":-0.08242140606048197,"7":0.1791134490474032,"8":0.03897581529490689,"9":0.03025189471392103,"10":0.03574723223794034,"11":-0.07092759242051085,"12":0.07227041373768193}},"158":{"bias":0.023289634413881755,"weights":{"0":0.19730796823465946,"1":0.1717806692813037,"2":0.05561402317654768,"3":-0.1535302933117847,"4":0.05013950637365331,"5":0.15194257118104387,"6":0.08530846261780543,"7":-0.07742166164948072,"8":0.03022309860859639,"9":0.19307937178505027,"10":-0.033019876986879464,"11":-0.05985128643691425,"12":-0.1907128695600977}},"159":{"bias":-0.01749039036705063,"weights":{"0":-0.0431770807915539,"1":-0.11646207712699122,"2":-0.18636667594635725,"3":-0.055536577376739935,"4":-0.19188883786877417,"5":-0.18207754479331878,"6":-0.012800160387544978,"7":-0.12055581454275939,"8":0.02558433532420969,"9":-0.002435377085441333,"10":0.07127815868173946,"11":-0.14671090160433414,"12":0.11827302958195715}},"160":{"bias":0.14803087359219683,"weights":{"0":0.0880358706486496,"1":0.19145805368954533,"2":-0.14666642785046696,"3":-0.19564661623179191,"4":0.15658747685537427,"5":0.17056667281128804,"6":-0.11832820678159368,"7":0.19539705052547598,"8":0.18035467317221895,"9":-0.1986098865709077,"10":-0.13069438410566353,"11":-0.18746312094045756,"12":-0.044076830173822384}},"161":{"bias":-0.07767129630304084,"weights":{"0":-0.04981180861084037,"1":0.17605399546900177,"2":0.18187203792631892,"3":-0.12069668319820301,"4":-0.07704898850415061,"5":0.0046419202329584614,"6":-0.1652865651508589,"7":-0.038581366161752645,"8":0.03690137764263519,"9":-0.17124004030359746,"10":-0.03250791211582188,"11":-0.17280481743857037,"12":-0.1979837753081738}},"162":{"bias":-0.026122088572943205,"weights":{"0":0.15940228396810172,"1":0.06579758240632055,"2":-0.05213532739660739,"3":-0.1522350965942652,"4":0.15174215181339412,"5":0.15624387186508465,"6":-0.08903988063828981,"7":0.12327639958514779,"8":-0.12954346285882365,"9":0.15785182548978793,"10":-0.16197221226228395,"11":-0.05557210784901236,"12":0.16993527875928782}},"163":{"bias":0.021217378577395668,"weights":{"0":0.08205044754524136,"1":-0.17549254492086336,"2":-0.1771365178824791,"3":-0.14515066834218426,"4":-0.06069438173800207,"5":0.10089970591778612,"6":0.16538899726177692,"7":0.12662513873895204,"8":0.01798282883840679,"9":-0.004404536569775068,"10":0.19488102553365305,"11":-0.02437099076684937,"12":-0.0064557628557566325}},"164":{"bias":-0.056603519085292736,"weights":{"0":0.06770513573763529,"1":0.10891799668620035,"2":-0.10774530997694495,"3":-0.022818712481947584,"4":-0.025289245453069716,"5":-0.07077943619689597,"6":0.039653137398191006,"7":0.08549952715408687,"8":-0.13211828275320633,"9":0.18899642580034623,"10":-0.12557563361018417,"11":0.05932238655481451,"12":0.038331830672528024}},"165":{"bias":0.14044575983290436,"weights":{"0":0.19163077901849146,"1":-0.08102987212653556,"2":-0.1974764306678343,"3":0.18294974225804972,"4":-0.07718573437570744,"5":-0.059415311299919484,"6":0.1919801856562878,"7":0.14555422477148877,"8":0.18084459058331043,"9":-0.062407405214670454,"10":-0.045842884087296025,"11":0.16844625146468625,"12":0.04951040213556081}},"166":{"bias":0.12252128220449171,"weights":{"0":0.03443255890588593,"1":0.05709951352093759,"2":-0.19578890938946686,"3":-0.17659606839799857,"4":0.15516802491712986,"5":0.08552885026455705,"6":0.05331385909049901,"7":-0.002374794539056283,"8":0.15951077878863526,"9":-0.16595622221295467,"10":-0.12113510307648956,"11":-0.022665419480808673,"12":0.15307116856518913}},"167":{"bias":-0.16120505257273499,"weights":{"0":-0.1359731543180865,"1":-0.02130333214778038,"2":-0.04356238440853724,"3":-0.16549358459432378,"4":0.026850277777286016,"5":-0.19449155278480487,"6":-0.10644170518939977,"7":-0.13752912551371083,"8":-0.0748647585942969,"9":0.04113022858439323,"10":-0.11400974614184008,"11":-0.045906640719486635,"12":-0.04268807159492469}},"168":{"bias":-0.11599428409922276,"weights":{"0":0.14294179228335988,"1":0.18091571927617855,"2":0.03817835788737455,"3":0.15521564646858987,"4":0.035616954808896935,"5":0.030320647314960484,"6":0.010897896691536596,"7":-0.13725509619038254,"8":0.0389689482983193,"9":0.0815049010636673,"10":-0.1507599200214111,"11":-0.12459781436692455,"12":0.1342499901474071}},"169":{"bias":0.06843681287071493,"weights":{"0":0.1722988272007001,"1":-0.043693286976261965,"2":0.21215942273051092,"3":-0.1698434512169857,"4":0.1852691746807537,"5":-0.18354392963526991,"6":-0.1397273692885899,"7":0.14403494835869246,"8":0.1731807446805302,"9":-0.07260732172490918,"10":0.04928421573408747,"11":-0.14564921728486657,"12":-0.0919267080281441}},"170":{"bias":0.030540185121265186,"weights":{"0":0.00706251752809528,"1":0.030944880005463922,"2":-0.14086219505681222,"3":0.1869762718515569,"4":0.17337967289519976,"5":0.030685294172060312,"6":0.15618727540856564,"7":0.06747387491847812,"8":0.029613290891738316,"9":-0.1638304306823396,"10":-0.03199310448084803,"11":-0.1741014594439222,"12":-0.054907930846746576}},"171":{"bias":-0.19904889578128088,"weights":{"0":-0.08053745438379906,"1":-0.16103486361351782,"2":0.08944503228641461,"3":0.09151885832053516,"4":-0.19424585703092495,"5":0.02703654230535997,"6":0.052995056904897725,"7":0.13117926833001287,"8":-0.0543116222934188,"9":0.13067564661510703,"10":0.026911991076487618,"11":0.09562792400052114,"12":-0.006656269742294032}},"172":{"bias":-0.1502758012347349,"weights":{"0":-0.17075675770949028,"1":0.051935524141941254,"2":-0.03245393817964652,"3":-0.06787307956911726,"4":0.1665292039156031,"5":0.14352971077270113,"6":0.12231380321194937,"7":-0.012438665176033849,"8":0.08137863052574015,"9":0.13664494763192067,"10":-0.1814108481391932,"11":0.028954130045321567,"12":-0.0657859904581757}},"173":{"bias":0.04462781195063154,"weights":{"0":-0.15985244785557443,"1":-0.1579391191803765,"2":0.1985364303195176,"3":-0.11085768241340789,"4":-0.08637389926053333,"5":0.006101128508560775,"6":0.19875752426971285,"7":-0.00013320958404396048,"8":0.009134868031108181,"9":0.11312626929968418,"10":0.04854026627853953,"11":-0.04534637455292674,"12":0.010022159065758303}},"174":{"bias":-0.06705806678863126,"weights":{"0":-0.1192525871114902,"1":-0.09172524294602227,"2":-0.2033713386418057,"3":-0.10779358744850673,"4":0.14758219298094674,"5":-0.1303734204604896,"6":0.10501996342864987,"7":-0.10166840179251697,"8":0.06712947740755991,"9":-0.11563168484011226,"10":0.18789269575207815,"11":0.007020089989764573,"12":0.18867628233847325}},"175":{"bias":-0.12015256803216576,"weights":{"0":0.05670150948007044,"1":-0.028324254075576656,"2":-0.17935582900082603,"3":0.13464028605853998,"4":-0.025257906089357077,"5":0.18593717639199753,"6":0.19857751757772935,"7":-0.04269643835243507,"8":-0.1708306696560498,"9":0.15100891453183457,"10":-0.19276581765216727,"11":0.05398554114653615,"12":0.12786811382817573}},"176":{"bias":0.08685404910168408,"weights":{"0":-0.18609565767053574,"1":0.09269385545461581,"2":-0.15449698883482346,"3":0.03812691935260544,"4":0.08920714127142555,"5":-0.1643331683092834,"6":-0.09404985909634501,"7":-0.0583324979689886,"8":0.133176426993668,"9":-0.09959818741491716,"10":0.06929438469238818,"11":-0.07551891846529098,"12":-0.15948022891274355}},"177":{"bias":-0.07393991189053449,"weights":{"0":0.11274430199526692,"1":-0.04563136966552034,"2":0.16956720941391515,"3":-0.06272344627163444,"4":0.0708601537346388,"5":-0.16839742842810232,"6":-0.010843230275730913,"7":-0.119121579589666,"8":0.12841017944703803,"9":-0.11068265011429973,"10":-0.07526663078295812,"11":0.05951703997935785,"12":-0.04782899206264012}},"178":{"bias":-0.08030713434715876,"weights":{"0":-0.05552639104761402,"1":-0.12227813114449845,"2":-0.07297318845101362,"3":0.07756272506096913,"4":-0.16376786967074727,"5":0.10609956583401269,"6":0.17373024161608902,"7":-0.016086718282498896,"8":-0.03701701317397011,"9":0.1563101170934177,"10":0.07062721074407019,"11":-0.07724170909038006,"12":-0.03610379617201272}},"179":{"bias":0.13051443029941506,"weights":{"0":0.1443502485714353,"1":0.012697370230740298,"2":-0.09673137187653083,"3":0.12778674176466034,"4":-0.05362187749220499,"5":0.1449212161545666,"6":0.14320475483614178,"7":0.1504304399793426,"8":-0.11174857286595986,"9":0.02270570620506479,"10":0.023378852698624063,"11":-0.08991412984193893,"12":-0.18634627052248393}},"180":{"bias":-0.054639921379546555,"weights":{"0":0.14603157551732554,"1":-0.13432555543961497,"2":-0.08558144366064767,"3":-0.19813313526153048,"4":-0.15540095493042885,"5":-0.16960442786551855,"6":-0.13072656343247796,"7":0.1294124434550028,"8":-0.17916775060796233,"9":-0.18344277500545836,"10":0.11802818424587767,"11":0.15748934654890423,"12":0.059281004995822964}},"181":{"bias":0.011359250668819394,"weights":{"0":-0.1372738050439823,"1":-0.18234278882883792,"2":0.10626342364755705,"3":0.12772167185447428,"4":0.09356743626979314,"5":0.05707798111061193,"6":-0.15091475644148422,"7":0.018781585635564126,"8":-0.16024180651236045,"9":0.0025106843404085278,"10":-0.06363070367774057,"11":0.03483251216267612,"12":0.17546788233386032}},"182":{"bias":-0.16833859133353055,"weights":{"0":0.07698583353370256,"1":-0.029278754208622425,"2":-0.169308163256889,"3":-0.04833635428500704,"4":0.074200368347259,"5":0.10462292786027388,"6":0.006070260810495847,"7":-0.1908101659892674,"8":-0.025468534101304046,"9":0.09540343160098523,"10":0.1250822590676026,"11":-0.1618366763292658,"12":-0.020207136792416994}},"183":{"bias":-0.18008580350336373,"weights":{"0":-0.12046522846830528,"1":-0.1806596311098709,"2":-0.1141807253525687,"3":-0.16817530000932948,"4":-0.05082685444802578,"5":0.10085953751834276,"6":-0.20031804471395334,"7":-0.08063085687083772,"8":-0.016985255705492218,"9":-0.0949665605714012,"10":-0.1027634391473178,"11":0.08311250519951954,"12":-0.17935470837431408}},"184":{"bias":-0.19014194863859782,"weights":{"0":-0.09639081091291124,"1":-0.1431180214801628,"2":0.12069265457155916,"3":0.1741459011065934,"4":-0.13608733199846573,"5":0.16608287197707924,"6":-0.12867390162002504,"7":0.08569765244845332,"8":0.0527037855554608,"9":0.08438022639144736,"10":-0.04202170543863972,"11":-0.07486133061858286,"12":0.04989043009672717}},"185":{"bias":-0.033007868686529655,"weights":{"0":-0.14779632238843615,"1":0.04555139647670669,"2":-0.07875906865250783,"3":0.007151215330074911,"4":-0.14112434557930512,"5":-0.13112804344446097,"6":0.1245654103802614,"7":-0.17077256683406225,"8":-0.12719482087560646,"9":0.0581540309976327,"10":0.19775305843391078,"11":0.02342117982697736,"12":-0.1088338292481541}},"186":{"bias":-0.13993806971727268,"weights":{"0":0.168153484538618,"1":-0.035948907459053075,"2":0.03307301956862897,"3":0.1435490022384901,"4":0.07665487202626346,"5":-0.17011290270910356,"6":-0.05256521447574155,"7":0.01190957353458844,"8":-0.1608146552443411,"9":0.14048658131534256,"10":0.13499367740579174,"11":-0.10499778696363701,"12":0.19617986164283366}},"187":{"bias":0.16928239373540876,"weights":{"0":-0.10903906805744037,"1":-0.1628786511267188,"2":-0.055059445039537774,"3":0.07987298649977684,"4":-0.13125152479869343,"5":-0.033581073444616284,"6":-0.1924196079388212,"7":0.1304762107020662,"8":-0.07736690044689276,"9":-0.18968589560602425,"10":0.15883119780371183,"11":0.09301771852779184,"12":-0.1993674585591734}},"188":{"bias":0.1298811525614373,"weights":{"0":0.09342532024735224,"1":-0.1005699503255162,"2":-0.11790429643259502,"3":-0.10545634005462853,"4":0.013946343466820946,"5":0.09593574922908786,"6":-0.07908429137069395,"7":-0.03964054420275177,"8":0.006592444769060773,"9":0.13703075146197688,"10":-0.07777312412634421,"11":-0.1377039564825976,"12":0.09001708582381263}},"189":{"bias":0.10304937230612106,"weights":{"0":-0.09420262662256147,"1":0.12314487470501684,"2":0.08149944385364616,"3":-0.1847701302781776,"4":0.015539614411398736,"5":-0.08670982063835526,"6":-0.0366410228993806,"7":-0.19926650079443353,"8":0.16127874455378355,"9":0.19345748477434882,"10":-0.03914416708160246,"11":0.16752373846989288,"12":-0.12139832393560646}},"190":{"bias":-0.1215205602585102,"weights":{"0":-0.11801655862652502,"1":-0.12999021119034182,"2":-0.17345124093916536,"3":-0.14363072729753534,"4":0.060672989114891676,"5":0.1559584786112973,"6":-0.05714406816363555,"7":0.09357983400472257,"8":-0.13396809561907375,"9":0.09852058745415425,"10":-0.1166694913298905,"11":-0.11236745072730717,"12":0.05177070562405117}},"191":{"bias":-0.016829484052383496,"weights":{"0":-0.16186083759605702,"1":-0.03940960661673228,"2":-0.022512896987943915,"3":-0.115228074951544,"4":0.19536373095280016,"5":0.06965929776178302,"6":-0.0050940860640852565,"7":0.19307053304995878,"8":-0.05752948595233092,"9":-0.0627236308964111,"10":-0.07411882460650317,"11":0.0998100435324959,"12":-0.19955749835946918}},"192":{"bias":-0.033099583740118045,"weights":{"0":0.02149082993378932,"1":-0.029987476544729448,"2":-0.11588166997662369,"3":0.0012728858574692031,"4":0.023160119135692006,"5":-0.014980994927740956,"6":-0.12331499369065388,"7":-0.19565293536491796,"8":-0.14399948417304528,"9":0.16023226923396716,"10":0.03541255960707558,"11":-0.027208622600420358,"12":0.08126838940741464}},"193":{"bias":-0.020527437273515945,"weights":{"0":0.061602951046901354,"1":-0.1700355029751898,"2":0.20681990636374945,"3":0.21414283741619347,"4":0.06329027982065771,"5":0.05403388109614964,"6":0.08521896816079287,"7":0.07464389482146047,"8":-0.040112864597353165,"9":0.039738417875133256,"10":0.1907554395155092,"11":0.13437671133089674,"12":-0.09207321113752213}},"194":{"bias":0.18066390495354107,"weights":{"0":-0.1904002288978678,"1":0.09998163891063894,"2":-0.1366354092584072,"3":0.041556378979948315,"4":-0.12122464814276636,"5":0.13507076938128246,"6":-0.13604257880170192,"7":0.04478894960172128,"8":-0.022832768566935543,"9":0.017383078554252546,"10":0.11692734553453835,"11":-0.0370783886036789,"12":-0.018464805781048657}},"195":{"bias":-0.12963739817408346,"weights":{"0":-0.09947981871611283,"1":0.00847850258758156,"2":-0.1680047443166622,"3":-0.011151699420934958,"4":-0.05711020376349603,"5":-0.0324836043301733,"6":0.17301747778433485,"7":0.11748616043945707,"8":-0.019199705415161153,"9":0.17383957861664381,"10":0.029993199796040516,"11":0.05618157506994759,"12":0.10547087920351678}},"196":{"bias":-0.1781097279167485,"weights":{"0":0.19548045634631628,"1":-0.09314244772167293,"2":-0.012030817079074748,"3":-0.01270084428321973,"4":-0.1075181716077741,"5":0.026414120360992912,"6":0.19759125870329763,"7":-0.1393174999089634,"8":-0.1230810556991858,"9":-0.1741328666098949,"10":-0.19950994894089502,"11":-0.010705967622017606,"12":0.04913333940332311}},"197":{"bias":0.11848392305649026,"weights":{"0":0.10760661560991323,"1":0.07601125523599633,"2":0.02476023141960589,"3":-0.09286607707305274,"4":-0.08413151501808698,"5":-0.05943372094820872,"6":-0.15681743991785957,"7":-0.1432016070262576,"8":-0.18620029082855577,"9":-0.07685383766318668,"10":0.009448797146532285,"11":-0.042341410664589595,"12":-0.1502061204414999}},"198":{"bias":0.09399061576959696,"weights":{"0":-0.07385118147744643,"1":-0.19560062345769774,"2":-0.1741313047804378,"3":-0.09166057871897224,"4":0.16274497931199447,"5":0.08128127465766666,"6":-0.1652809244061146,"7":-0.04615285250521535,"8":-0.03278011722079578,"9":0.08921908735344931,"10":-0.1746741258966448,"11":0.055950559460295216,"12":-0.1797623469534719}},"199":{"bias":0.0919262636600214,"weights":{"0":-0.14371841706134292,"1":-0.09310572141448512,"2":0.06873297536447726,"3":0.11450767704217367,"4":0.1453185865985104,"5":-0.17074930402408833,"6":0.035502343120039234,"7":0.18407120344697644,"8":-0.12044312073783871,"9":0.1884678406053188,"10":0.07493868111469874,"11":-0.17923929395531082,"12":0.14007056234196463}},"200":{"bias":0.08169147359145933,"weights":{"0":-0.005807363979352396,"1":0.190389985890921,"2":-0.04692012877626087,"3":-0.17286696761403408,"4":-0.09167170672942379,"5":-0.037853097643172094,"6":-0.11825414720859274,"7":-0.049599924996090776,"8":0.17163420984532285,"9":-0.03310836805101212,"10":-0.05183460047994354,"11":-0.14643914789295417,"12":-0.1819246354332478}},"201":{"bias":0.011976022278515304,"weights":{"0":-0.0726179591576218,"1":-0.11133596172698453,"2":-0.04930297866330783,"3":-0.03377555547282336,"4":0.09687297668287027,"5":0.18494462206727877,"6":-0.05723415697846614,"7":-0.02570798973215423,"8":-0.12230826458807961,"9":-0.15902058863915944,"10":0.15409165848531342,"11":0.09937459490895123,"12":0.04955278809675596}},"202":{"bias":0.030213523866052968,"weights":{"0":-0.06776771460186023,"1":0.19329841156293662,"2":0.05586936449111458,"3":-0.1947953950459156,"4":-0.1491648607975852,"5":0.05611707401919343,"6":0.13311529716906417,"7":-0.11890725007189266,"8":-0.006982459414300969,"9":0.09804687462488512,"10":-0.11130846074855917,"11":0.1518547393089271,"12":0.04977658216550909}},"203":{"bias":-0.1733615356489233,"weights":{"0":0.05340454914966364,"1":0.15343891613879618,"2":-0.10053070178013271,"3":-0.0905687036916223,"4":-0.04732306419751485,"5":-0.17795574313074375,"6":0.17168657162797246,"7":-0.04268630292202166,"8":0.0017802722948700635,"9":0.04395592882484505,"10":0.06112957801710981,"11":-0.17369790003973895,"12":0.006330432820163404}},"204":{"bias":0.17183748461355708,"weights":{"0":-0.06934613041388402,"1":0.050722387763250984,"2":-0.0748564515923462,"3":-0.2290733264074512,"4":0.12768576025985334,"5":-0.057633835578123446,"6":0.16957583810288354,"7":0.06032561684447117,"8":-0.003450042578635727,"9":-0.15173381645412273,"10":0.04366580327800698,"11":-0.018773944624611447,"12":0.16996418095896207}},"205":{"bias":0.16654726922529364,"weights":{"0":-0.1602328379281715,"1":0.03599274255144922,"2":-0.1271239892503627,"3":-0.029461784360842094,"4":0.0592432526673425,"5":0.009948043510127133,"6":-0.14118660607181813,"7":-0.050244049342324466,"8":-0.08071279829258149,"9":-0.032186492874186075,"10":0.0797004329806184,"11":-0.12106524930453252,"12":0.13320909498236944}},"206":{"bias":-0.12159627839884374,"weights":{"0":-0.009620567578234703,"1":-0.13549698022128376,"2":-0.00024655576636228063,"3":0.0864993188600164,"4":0.10558605221862154,"5":-0.024408873537524977,"6":0.02909939885872146,"7":0.022551066404234342,"8":0.10976604527069297,"9":-0.09154429728458914,"10":0.020710129525296123,"11":0.1620858524948514,"12":0.07674790746128174}},"207":{"bias":0.0860365001556927,"weights":{"0":-0.13513819675931735,"1":0.008245171203608246,"2":-0.18971593220956146,"3":-0.1634076139977256,"4":-0.07472061598978869,"5":0.052561915358373935,"6":-0.16205339287979287,"7":0.17627129525371166,"8":0.16276238560801085,"9":0.12608714386338402,"10":-0.05453823241849109,"11":0.1149243604030565,"12":-0.1820873276040147}},"208":{"bias":-0.16549412139640904,"weights":{"0":-0.004447225897782761,"1":0.003951502981082862,"2":-0.05543982183396265,"3":0.14700039414480875,"4":0.15761323353679274,"5":-0.006105171946424765,"6":-0.09255220087842454,"7":-0.1545053134291349,"8":-0.14323773771093243,"9":-0.1795488808838513,"10":-0.09494105773220794,"11":-0.0785301383872544,"12":0.1186842772713691}},"209":{"bias":-0.13306130353285878,"weights":{"0":-0.08548150291072795,"1":-0.18979969685924294,"2":0.1469771055225019,"3":0.03065161562160126,"4":-0.1774829839852857,"5":-0.04620627412086509,"6":0.05526761068603419,"7":-0.14926440850198064,"8":0.06296769710709761,"9":-0.004281274470639005,"10":-0.15228202496235735,"11":0.05316475278151456,"12":0.04761710737549151}},"210":{"bias":0.16715900796942412,"weights":{"0":0.19299389966335212,"1":-0.09746636080984052,"2":0.07737429334295802,"3":0.1560542155692028,"4":-0.05922665765727802,"5":0.1123538540824242,"6":-0.14818663969071014,"7":0.0012632642702871688,"8":0.01572711438870828,"9":-0.08294262589396056,"10":0.08567399742081475,"11":-0.08926112513400118,"12":0.017847184510283137}},"211":{"bias":0.07761236576417938,"weights":{"0":-0.09257942319891443,"1":0.13269861317532042,"2":0.07546053624334785,"3":-0.1729507456896683,"4":0.17705925110590023,"5":-0.1625257780827297,"6":-0.11335756054292738,"7":-0.059002441401328536,"8":0.1049880267026202,"9":-0.03063169548912005,"10":-0.02614201820251913,"11":0.011908057978998906,"12":0.11810834242108988}},"212":{"bias":-0.04673466988903617,"weights":{"0":-0.08671964073242816,"1":-0.07577916531834565,"2":-0.02851849965264322,"3":-0.026480328283458917,"4":0.09810874100859056,"5":-0.15084051194658257,"6":0.024308586550708843,"7":-0.16384712582845437,"8":0.08672469835962109,"9":0.17277042850729502,"10":0.11960580012235285,"11":-0.13769276105197298,"12":-0.06426269682863921}},"213":{"bias":-0.030052371298584638,"weights":{"0":-0.19446855621968714,"1":-0.07460580978967894,"2":0.030448838841493877,"3":-0.08348682821785519,"4":-0.08659063863600226,"5":-0.15484886155755553,"6":-0.18769860687637774,"7":-0.023218234920793848,"8":-0.09411243250504346,"9":0.11688646380611631,"10":0.00668851752138672,"11":0.14993366892651044,"12":0.07148261452567549}},"214":{"bias":0.09209417123647286,"weights":{"0":0.007345166654310549,"1":0.19761423799975578,"2":-0.1510368964028641,"3":0.16696360406798932,"4":-0.1479827272900009,"5":-0.1257154480075091,"6":0.0006305189297211904,"7":0.19051699972613304,"8":-0.12144844702591867,"9":-0.09137791210119015,"10":0.0027828116287457664,"11":-0.15622436685201055,"12":0.14222771398191444}},"215":{"bias":0.1727358713113591,"weights":{"0":0.14520746446456395,"1":-0.013468258051729019,"2":0.08706294191299939,"3":-0.19599763746060858,"4":-0.12036964616803138,"5":0.08010701261342253,"6":0.13335271865435633,"7":0.15243872132499633,"8":-0.18640662860762236,"9":0.09158056645478202,"10":0.011746490710384586,"11":-0.1668428717829669,"12":-0.1642374165638546}},"216":{"bias":-0.12327154737819691,"weights":{"0":-0.1369612320891224,"1":-0.10894775653650868,"2":0.14728718306498523,"3":-0.17764007706547588,"4":0.16859656437809178,"5":-0.175910171185426,"6":-0.16080453116701335,"7":-0.19385697775224003,"8":-0.09248323067069446,"9":0.07314886634147988,"10":0.021538864904710842,"11":-0.1949384619158691,"12":0.08300044281958263}},"217":{"bias":0.19597902599451397,"weights":{"0":-0.11715772365182323,"1":0.037600741149301904,"2":0.15231493786392636,"3":0.08728484313541962,"4":0.06200077800443976,"5":0.0922478472053253,"6":0.08131585530439606,"7":-0.19431150673741052,"8":-0.03135694265998805,"9":0.17011955613950452,"10":0.023455811466368933,"11":-0.011506829513820047,"12":-0.009919088602821582}},"218":{"bias":0.13335700644685564,"weights":{"0":-0.17379031638702708,"1":-0.04018417466408353,"2":0.16040114454328286,"3":-0.048810784139846554,"4":-0.04781841258808436,"5":-0.17935279238758728,"6":0.12902276967655768,"7":0.18455530522587196,"8":0.0630824539530978,"9":-0.03647395316576004,"10":-0.0696529160316562,"11":0.12822306836931383,"12":-0.11458484333193786}},"219":{"bias":0.04756347887510687,"weights":{"0":0.049029344922932136,"1":0.06703981257636926,"2":0.051059653183752135,"3":0.018794477744640808,"4":-0.12874079610270212,"5":0.1743431549926085,"6":-0.052936228109795196,"7":0.006515096154716647,"8":0.04258017807531406,"9":0.018142111216760796,"10":0.09111943156904041,"11":0.007239269423578705,"12":-0.18754810546062567}},"220":{"bias":0.09766566093447784,"weights":{"0":0.14338019452589887,"1":0.034138956547005474,"2":-0.17545444550275324,"3":0.04038467538398017,"4":0.0010187664266498844,"5":0.04282138968538467,"6":-0.19884393539667589,"7":0.15892666245470824,"8":-0.057025126133035335,"9":-0.18922294990067254,"10":-0.10225864470944235,"11":-0.13857519496070048,"12":-0.004128097461241375}},"221":{"bias":-0.03527307050043327,"weights":{"0":0.018025070246733443,"1":-0.06350699351061144,"2":0.08535808860841948,"3":-0.11891782866164868,"4":0.07026210650936573,"5":-0.008744458902108716,"6":-0.06186804903967812,"7":-0.17084521202229522,"8":0.033397576350182305,"9":0.095388070384637,"10":0.017250281029725326,"11":-0.14475339134892298,"12":-0.09798751636845811}},"222":{"bias":-0.028129781473670068,"weights":{"0":-0.03505994490030699,"1":-0.1977748142603357,"2":0.004048322413931947,"3":0.14916399029818547,"4":0.12490558828548178,"5":-0.09389543572065494,"6":-0.10143646524982255,"7":0.1780389401976711,"8":-0.030483519035760197,"9":-0.1963512076964049,"10":0.014341689377227585,"11":-0.17262417687988757,"12":-0.08291659506976835}},"223":{"bias":0.0482615177947333,"weights":{"0":-0.06135971158942129,"1":0.062158432472268085,"2":-0.12498704883426266,"3":-0.14313267623519882,"4":-0.047486401507647616,"5":-0.060736776685526614,"6":0.16663216640070894,"7":-0.19648620252770213,"8":-0.1223276728344601,"9":0.11685727547336001,"10":-0.19087724533179773,"11":0.01146206279462924,"12":-0.13724260888134443}},"224":{"bias":-0.18091729693748565,"weights":{"0":-0.047640503482451246,"1":-0.044962848341931726,"2":0.14888143057780612,"3":0.1214526014209946,"4":0.042070696013264235,"5":0.18825194741162918,"6":0.014856903548600899,"7":-0.016829769706886995,"8":0.18662198657866874,"9":-0.15676680646203858,"10":0.0480983959273738,"11":0.1291558159078893,"12":-0.18509391783809412}},"225":{"bias":0.10041236880363429,"weights":{"0":0.1530116481604842,"1":0.03537490822022265,"2":-0.009774835881125772,"3":-0.08275412248333808,"4":0.02933359539855674,"5":-0.1375106113332669,"6":0.10950261056182642,"7":0.05459748268766752,"8":0.15311500270569703,"9":0.10209628310730026,"10":-0.08630521889475899,"11":0.08448641905133548,"12":0.029763583824356277}},"226":{"bias":-0.1908193228979739,"weights":{"0":-0.15525423968149835,"1":0.08830342374452312,"2":0.1858158090335644,"3":0.14169864777909827,"4":0.17481752258855845,"5":0.1271570214399821,"6":0.009867592068824255,"7":0.032731273342527074,"8":-0.030099812172398748,"9":0.081014080328202,"10":-0.058892689346928935,"11":0.03804116499004207,"12":-0.13814499447648104}},"227":{"bias":-0.1821207288288828,"weights":{"0":-0.02891682075514553,"1":-0.044117855526354464,"2":-0.058410903448377745,"3":0.20952728293545458,"4":0.09818364776207572,"5":-0.02957581113132875,"6":0.11714592818495141,"7":0.0719778815895898,"8":0.12251896444465513,"9":0.15299455055644703,"10":-0.0295385817086193,"11":-0.11651150468034602,"12":-0.11791155160719409}},"228":{"bias":-0.20094297810252157,"weights":{"0":-0.10969200166207427,"1":0.029975767139935584,"2":-0.18420140090563822,"3":-0.04702938234858745,"4":-0.13004630332111153,"5":-0.07446386395031274,"6":0.043762702770335,"7":-0.19400186586619708,"8":-0.027889302683976963,"9":0.05027113789204292,"10":0.1418006947026158,"11":-0.09671626962728762,"12":-0.17983346616923368}},"229":{"bias":0.02223042174211821,"weights":{"0":-0.010721295117293734,"1":0.15049576983274726,"2":-0.08250079154305436,"3":-0.008188409998338461,"4":0.08492210899483124,"5":-0.17967960409388523,"6":-0.03513028236040923,"7":-0.03456639430454586,"8":-0.10280859113843514,"9":0.12668150983256724,"10":-0.047480847459701006,"11":0.18427361294393307,"12":-0.023001494686461316}},"230":{"bias":-0.11043085868745124,"weights":{"0":-0.11077284036325706,"1":-0.0004818958755624647,"2":-0.1663116443685003,"3":0.015322298514160334,"4":-0.1459118546679,"5":0.16365528446337207,"6":-0.05097460345773429,"7":0.02618724117462768,"8":0.1653873462722121,"9":0.0645965238228987,"10":-0.10449952256222526,"11":0.14045404779666548,"12":-0.029909852747857416}},"231":{"bias":-0.008058599147465238,"weights":{"0":0.05363485758317095,"1":0.1682259046215989,"2":-0.20190878661748388,"3":-0.11322099832474415,"4":-0.13891493630628274,"5":-0.14748886848389878,"6":-0.05933496393717739,"7":-0.13979531829421454,"8":-0.02802438763092756,"9":-0.1124068839238995,"10":0.09176461635944616,"11":0.12512547696562215,"12":0.0707450590906993}},"232":{"bias":-0.11461175265117478,"weights":{"0":-0.09542385420838266,"1":-0.12213822315420675,"2":0.17174124773510946,"3":-0.1252515154400229,"4":0.1345239987488545,"5":0.015659763433732134,"6":-0.09712014304548505,"7":0.010627408955807131,"8":0.19592646260298138,"9":-0.16643038371556462,"10":-0.07209847858633361,"11":0.184803662778309,"12":0.09050390650724727}},"233":{"bias":-0.056586830292109966,"weights":{"0":0.05338974905218346,"1":-0.13923118993951072,"2":0.01606376673768115,"3":0.07868708719349894,"4":0.09419351596420027,"5":0.05401038113018292,"6":0.009762607243829767,"7":0.14208845231616937,"8":-0.07567619639303012,"9":0.02228108067399019,"10":-0.1497364211151519,"11":-0.1324107359026703,"12":0.026694309210486312}},"234":{"bias":0.07704992969754798,"weights":{"0":0.1278673795865717,"1":-0.17033483688457743,"2":-0.1098770736374055,"3":0.026411878140021623,"4":0.13383141845985902,"5":0.10103315588240365,"6":0.16174512694486598,"7":-0.15502165803613943,"8":-0.10261913295889574,"9":0.17492396053101275,"10":-0.19869409957385573,"11":-0.007226089693957271,"12":-0.09697963669308379}},"235":{"bias":0.07248147620278514,"weights":{"0":-0.12897520279261454,"1":0.06665054752382582,"2":0.12996004922015691,"3":0.07694337707749944,"4":-0.1074246020636392,"5":0.10807942568608335,"6":-0.14597955921154748,"7":-0.19310012392808631,"8":0.07298374389847494,"9":0.15305769138219286,"10":0.11209612995197082,"11":-0.18199755437805204,"12":-0.19420004920494924}},"236":{"bias":0.012044458372524816,"weights":{"0":-0.09023676500214681,"1":0.11072490150065013,"2":0.16203940436638106,"3":0.07276637458286543,"4":-0.16663504355532147,"5":-0.022865564206168133,"6":-0.14795373450388524,"7":-0.1539136318227007,"8":0.1560819764653015,"9":0.01524294995775484,"10":0.1156004537746516,"11":-0.0007085015266708798,"12":-0.10763501399562442}},"237":{"bias":0.19218388601948458,"weights":{"0":0.10965074067169814,"1":0.07201577312400802,"2":0.09194319829714698,"3":0.1582755707455921,"4":-0.026103562896675724,"5":-0.14367212498866788,"6":-0.1738977366588422,"7":-0.09973420566727276,"8":0.07414745240257187,"9":0.02596706167706441,"10":-0.09531314827098282,"11":-0.05337140521817032,"12":0.04516530369375295}},"238":{"bias":0.00553396504473232,"weights":{"0":0.18562459383999702,"1":-0.013616606418303602,"2":-0.1696202735606674,"3":0.0016157662911492606,"4":0.043323300799196905,"5":0.011664694146910846,"6":0.10404178423553019,"7":0.005154005431458034,"8":-0.08786379477151184,"9":-0.15453734020742496,"10":-0.026352870276996287,"11":-0.010794660921508731,"12":0.1322787755654717}},"239":{"bias":0.008580534964148895,"weights":{"0":-0.15238412962093265,"1":-0.09360928746472935,"2":-0.1498233223611917,"3":-0.05670696722217005,"4":-0.14082339195468108,"5":-0.13470857926947494,"6":0.17786509842931159,"7":-0.020668714222051483,"8":-0.043160160412942565,"9":0.10431264199635347,"10":-0.11480051455148348,"11":-0.1377507032030756,"12":-0.05879947638624306}},"240":{"bias":0.13125222111460008,"weights":{"0":0.000020390039718898702,"1":0.059985483250812,"2":-0.18220828629700844,"3":0.03205132541840077,"4":0.15078842335882875,"5":-0.004488120506880932,"6":-0.10430123653327482,"7":0.13581168217295278,"8":-0.054481338056991964,"9":-0.1207501049650001,"10":0.1468781293381211,"11":0.014200630964922925,"12":-0.16519926625379863}},"241":{"bias":0.16116255507669505,"weights":{"0":-0.12684355443716455,"1":-0.18283003528490965,"2":-0.05192086650848992,"3":-0.03627845556526953,"4":0.16992241591393037,"5":-0.08597699169352728,"6":0.033494510476863706,"7":-0.10621487232988827,"8":0.19711226817742156,"9":-0.004281852997519645,"10":-0.06219322590544136,"11":-0.0041190931601816725,"12":0.045327578460004556}},"242":{"bias":-0.1400588791180773,"weights":{"0":-0.13060236489639931,"1":-0.019571609347320634,"2":-0.020638164325738218,"3":0.11079186053063056,"4":0.03485511067693119,"5":-0.13093706947944353,"6":-0.1270285572570553,"7":0.10204395328051384,"8":-0.06185872829805661,"9":0.11237563156266868,"10":-0.1363845074743201,"11":-0.09189006640159031,"12":0.13962255384775082}},"243":{"bias":0.1182271395180623,"weights":{"0":-0.02917804332727643,"1":-0.19136286135379763,"2":-0.17178117474541157,"3":0.15940601632381232,"4":-0.08681678836221794,"5":-0.16917505944426944,"6":0.1405426555715535,"7":0.14599830406964281,"8":0.07260669332380808,"9":-0.1691874492772669,"10":0.1488348020664115,"11":0.0870846416539362,"12":-0.04377235288231624}},"244":{"bias":0.10509961182517802,"weights":{"0":-0.10759559146360288,"1":0.053339638214191826,"2":-0.16008150939662033,"3":-0.13923120593728186,"4":0.09900832898705858,"5":-0.07769325169483668,"6":0.15053148573656042,"7":0.16462963599021016,"8":-0.05718183034795981,"9":0.12737908931987812,"10":-0.09806148641882619,"11":0.045380841122102056,"12":-0.13517563296901344}},"245":{"bias":0.10935874637757502,"weights":{"0":-0.18986735121951268,"1":-0.1834012021723981,"2":0.09831290129371123,"3":-0.05211533233759565,"4":0.19091284651885693,"5":0.15885508083689734,"6":-0.17203353222967954,"7":0.15888478354374458,"8":0.15416731063834208,"9":-0.13478970273398522,"10":-0.1579263858532175,"11":0.15344624265271525,"12":0.14105040823989043}},"246":{"bias":-0.029052906415995398,"weights":{"0":-0.16496411134462013,"1":-0.1886939010249731,"2":-0.13971576630434326,"3":0.0009484674393118122,"4":-0.18869768356461,"5":0.12371794380841987,"6":-0.004379540858695003,"7":0.05542474299531651,"8":-0.038465249986069795,"9":-0.05757932527648057,"10":-0.11989911142796891,"11":0.053793821210446215,"12":-0.06621697411397257}},"247":{"bias":0.05407389369061969,"weights":{"0":0.09092872415724956,"1":0.09099336641866794,"2":-0.033921119325812286,"3":-0.05601131568025352,"4":-0.1377551509553321,"5":0.02198661353479933,"6":0.1528723616696773,"7":0.08725032826402308,"8":-0.1189605728599195,"9":0.07410837255781877,"10":-0.1913540648856765,"11":0.09972880525979888,"12":-0.10325717402857706}},"248":{"bias":-0.0437188917474978,"weights":{"0":-0.16438196325624316,"1":-0.0976748079544066,"2":0.0732060402682212,"3":-0.1889507446405992,"4":0.1354947865453,"5":0.022741385780207703,"6":-0.0894700365079317,"7":0.08831409907200306,"8":0.05477693012576327,"9":-0.08385818776876242,"10":-0.11468527397229576,"11":-0.19315468010701148,"12":-0.06203098445009782}},"249":{"bias":-0.08116620342484022,"weights":{"0":0.05574984776117086,"1":0.1158644331590526,"2":-0.17765085549193751,"3":0.04558883139858291,"4":-0.046390045540349895,"5":-0.14794417117062772,"6":0.19109250606220385,"7":0.188021779730492,"8":0.10424592872849396,"9":0.14411547543042005,"10":0.14862355031375574,"11":0.01342057307654328,"12":0.02277886304808487}},"250":{"bias":-0.027777157899518738,"weights":{"0":-0.07906093659732331,"1":0.011297348400871975,"2":-0.085170937743987,"3":0.10080929859654343,"4":0.12558278367489267,"5":-0.1819095009675288,"6":-0.0769089362713222,"7":-0.11089490010811905,"8":0.1432128020243973,"9":-0.16017519937695107,"10":-0.025116292043684058,"11":0.10855026564945514,"12":-0.1786670352513276}},"251":{"bias":0.030311065958884612,"weights":{"0":-0.17960601127449605,"1":-0.0654466206511659,"2":0.009602993728453376,"3":-0.0227027578706572,"4":0.17560130886280118,"5":-0.05847596074217487,"6":-0.018725953824952315,"7":-0.16567576780071414,"8":-0.16861151259801738,"9":-0.016281633948652792,"10":-0.12869608181355574,"11":0.019006192926363852,"12":-0.01028129481620604}},"252":{"bias":0.006959542111077938,"weights":{"0":-0.07334688022785978,"1":-0.11299639278268013,"2":-0.1146099605398441,"3":0.0723093705264254,"4":0.08430985332611375,"5":0.11585970423313069,"6":-0.05407405452109221,"7":-0.14592563678947146,"8":-0.12818895610817896,"9":-0.13683965268719858,"10":-0.031482420582626645,"11":0.007775522190579853,"12":0.03526775947021129}},"253":{"bias":-0.183987266578395,"weights":{"0":-0.15859128936620634,"1":-0.00816923167590925,"2":0.094691132570559,"3":-0.05439162161542348,"4":0.11665636114180408,"5":0.13340444308404967,"6":0.018810889790362828,"7":-0.09248364566363033,"8":0.1969640154513123,"9":-0.15202480657882875,"10":-0.09520468704460062,"11":0.17033022927947322,"12":0.012613528001299121}},"254":{"bias":-0.10337753157733066,"weights":{"0":-0.00237304083494603,"1":-0.2130774124617553,"2":0.024514937158515302,"3":-0.09287859357250469,"4":0.12556525233206123,"5":0.19681842984675027,"6":-0.021507722109388377,"7":-0.20498896674277328,"8":0.06602773729218071,"9":-0.1926441777200106,"10":0.1064445610479132,"11":-0.16752843207063067,"12":-0.09030173794061402}},"255":{"bias":-0.10159743241138629,"weights":{"0":0.0002533323888776967,"1":0.18942322224149702,"2":-0.16813673559423856,"3":-0.11014368868276528,"4":0.17434372189445585,"5":0.03584006275466259,"6":-0.04246305639781978,"7":-0.030874230159626457,"8":0.04084578761177968,"9":-0.04663955518429759,"10":0.10446441560049452,"11":0.02496483067125043,"12":0.19089077517910288}},"256":{"bias":-0.05899947389522525,"weights":{"0":0.1441836106338239,"1":0.17610890422085507,"2":-0.09681967825046016,"3":0.05333970177554773,"4":0.15422786045441042,"5":-0.018684546978535083,"6":0.04511940685232272,"7":0.1499833722607419,"8":-0.14766487077728946,"9":-0.06654942850060883,"10":0.0731618057739711,"11":-0.01769998699729559,"12":-0.018693176406025545}},"257":{"bias":-0.10112123777812912,"weights":{"0":0.1831881729200642,"1":0.05179786094705053,"2":0.09102769340220414,"3":-0.03656174746664574,"4":-0.10323224607969617,"5":-0.09840226777989593,"6":-0.11443356434916291,"7":-0.011903287305480847,"8":0.14020582389705424,"9":0.1001146682368952,"10":0.03779194015796007,"11":0.12744884294649994,"12":0.08405343625618049}},"258":{"bias":0.09500856659699687,"weights":{"0":-0.15898184176057242,"1":-0.11552370574831712,"2":-0.021065655550355,"3":-0.1260074296181988,"4":-0.05031279925937861,"5":-0.02159890105403815,"6":-0.19570193650903606,"7":-0.14287516985576282,"8":-0.15898809027858926,"9":-0.05618789593452759,"10":0.0868330952840149,"11":-0.0022938116980989907,"12":0.09040888309903031}},"259":{"bias":-0.05224977069572737,"weights":{"0":0.05152005389548173,"1":-0.03189561370124662,"2":-0.1790324912057056,"3":0.1445026400998153,"4":-0.02762563636538388,"5":0.07821810003132691,"6":0.03299020352428371,"7":0.1806372235626473,"8":-0.015487158399030828,"9":-0.08990291509654755,"10":0.08549740047661852,"11":-0.06552107393855702,"12":-0.17509989191510147}},"260":{"bias":0.15999080129277726,"weights":{"0":0.1536611758625525,"1":-0.0940254122231889,"2":0.04063630257891155,"3":-0.0695660618219965,"4":-0.12813546780492036,"5":0.07915183699264938,"6":-0.1452395870093269,"7":0.05836895273672329,"8":0.13311409390125156,"9":0.1433023878857634,"10":0.03266265214278075,"11":-0.19021695432524657,"12":0.00456852550088587}},"261":{"bias":-0.037710462614292145,"weights":{"0":0.09743272253393834,"1":-0.040501915487139495,"2":0.22516798531263907,"3":-0.018719379207926126,"4":0.0255737046654885,"5":-0.05276252089756109,"6":-0.11949460699345202,"7":-0.14300716033506597,"8":-0.14204490580188606,"9":-0.17288979047544822,"10":-0.13854337278600798,"11":0.19119632004807413,"12":-0.13900263956412254}},"262":{"bias":0.0156753930273305,"weights":{"0":0.09676389320673306,"1":-0.12218788149719949,"2":-0.11221469200567098,"3":0.01745273164736731,"4":0.0034287297222220414,"5":0.03124913601037992,"6":0.03341773246150684,"7":-0.18671501347019,"8":-0.13161562051259132,"9":-0.10063619187803702,"10":-0.05825109078864687,"11":0.12366781639416399,"12":0.15359568388924633}},"263":{"bias":0.12156188308431372,"weights":{"0":0.10400126064579451,"1":0.1612328662908628,"2":-0.08389350725061472,"3":0.10379730254162119,"4":-0.1768019220618555,"5":0.035892961056792766,"6":-0.005609125038851105,"7":-0.06648171107127569,"8":0.09692793584585235,"9":0.1389244342924542,"10":-0.153584851092076,"11":-0.15678783815166686,"12":-0.007099079528203139}},"264":{"bias":-0.019009131080667766,"weights":{"0":0.11959368070472949,"1":-0.059526610907086275,"2":0.14519556093526098,"3":-0.029956591873911698,"4":-0.14188629206122705,"5":0.06267243117178761,"6":-0.13799859200948336,"7":-0.004275239748839388,"8":0.10922574768333025,"9":-0.05422397517625209,"10":-0.1910885782357049,"11":0.030620372619256882,"12":0.12223090354865063}},"265":{"bias":-0.11068005685978209,"weights":{"0":-0.14337347754108534,"1":0.031133493378592562,"2":0.17177250493414745,"3":-0.06370946486822164,"4":-0.11709401080314591,"5":-0.04457305813800877,"6":-0.1676587937092749,"7":-0.03233369490411511,"8":0.19351573470132413,"9":-0.018112138859464104,"10":0.06999608249281858,"11":0.14410399074174626,"12":-0.1594945375572462}},"266":{"bias":0.16539643428343329,"weights":{"0":0.07837480376239263,"1":0.0006617550205720175,"2":0.21135457797678436,"3":-0.10911488416073858,"4":0.1656092596539004,"5":-0.15292192231848775,"6":0.029676876526259607,"7":0.08952278918561588,"8":-0.03120254323891829,"9":0.0749799672471234,"10":0.14236200121498344,"11":0.028868528457409573,"12":-0.10249909444334881}},"267":{"bias":-0.1762749819643884,"weights":{"0":0.0696168971604687,"1":0.02594891867738463,"2":0.1007909701926018,"3":0.0031896774637995597,"4":0.13184810985619355,"5":-0.0016417833775695411,"6":-0.21770567717022757,"7":-0.13930578012417283,"8":0.11800787117414913,"9":0.061416342924342816,"10":0.06617291931538684,"11":0.050618615159245865,"12":-0.08499256586673322}},"268":{"bias":-0.01057516456322862,"weights":{"0":-0.19124086699084625,"1":-0.010124543253988908,"2":0.16892211024928344,"3":0.13085775616037498,"4":-0.17398904712693844,"5":0.03400429178885488,"6":0.18527451041006923,"7":0.06436530419456518,"8":0.19917113878028125,"9":0.020184966021757934,"10":0.09017507244487669,"11":0.16423866210061594,"12":0.010672188917458013}},"269":{"bias":0.1839515987115522,"weights":{"0":-0.17509565293429702,"1":0.005940799453407259,"2":0.02022025987271905,"3":-0.01593752758962516,"4":-0.06773230286115411,"5":0.045721550783195265,"6":0.1115569967807585,"7":-0.07094147146882705,"8":0.11784836945775592,"9":0.0945124783322185,"10":-0.05049379412172391,"11":-0.026712786730640096,"12":0.018496183811141428}},"270":{"bias":0.15682891769613483,"weights":{"0":-0.10619799138316892,"1":-0.0649905111729007,"2":0.1646471606991486,"3":0.12639956432389293,"4":-0.12647988881093697,"5":-0.010695994774096853,"6":-0.08518571554261944,"7":0.11633605918437788,"8":0.1994232115570842,"9":0.014413017535416553,